51 384
<PAD_OR_OOV> 0.10431655 0.0078102993 -0.06849704 -0.13155144 -0.01264809 -0.101579756 -0.08138298 -0.1436899 0.114282 0.09636225 0.02819987 -0.10704976 0.040763628 -0.030928433 0.098655574 -0.17520131 0.15258437 0.03298605 -0.084919065 -0.09259439 -0.06872127 -0.03266551 0.097139195 -0.05419808 0.10962926 -0.05672625 0.007187004 0.030340862 -0.0093729375 -0.08258373 -0.10397098 -0.11640379 0.06502504 0.031725172 0.16111349 -0.10246827 -0.12531832 0.0055253794 0.001164149 0.005805651 -0.047988683 -0.02574575 0.16175646 0.0809563 -0.12471421 -0.13891605 -0.17654291 -0.11745341 0.048366573 0.016663106 0.06628219 0.089537285 0.17705199 -0.015285204 -0.010032241 -0.040618043 -0.080516465 0.084750146 -0.17016722 0.021029519 0.14294998 0.07398818 -0.12702449 -0.214485 0.022943635 0.14788023 -0.1442119 0.03707761 -0.046999887 -0.11762481 -0.09300594 -0.10574702 -0.009593752 -0.10321042 -0.11882117 0.18780218 -0.18626869 0.03092023 -0.16868067 0.075575635 0.061361786 0.065432146 0.083545595 0.031832688 -0.016676072 -0.047486853 0.09549622 0.13826247 0.035070833 -0.03957342 -0.048725642 -0.12823251 -0.0685371 0.05738332 0.070385024 0.09358887 -0.011352499 -0.014217088 -0.016261736 0.071460344 -0.047604486 0.05460931 0.06689337 0.06904872 -0.051469877 -0.02204362 -0.0679049 0.023124488 -0.005340905 -0.028408274 0.27866083 0.030307993 0.13345592 -0.026650809 -0.008443971 0.10004885 0.020730432 0.17391248 0.017605051 -0.12694754 0.12739617 -0.06985587 0.15887025 0.037324872 -0.050671127 -0.11193594 -0.09761026 0.03315383 -0.096460335 0.06963969 0.10529303 0.07784074 -0.034224432 -0.10127114 0.047771707 0.2547769 0.13867864 -0.13382506 -0.07543645 -0.019478705 -0.112958126 0.123992585 -0.07169448 -0.0398986 -0.0047459346 -0.07104542 -0.01974682 -0.015884193 -0.06558038 0.06609706 -0.0057518366 -0.074138805 -0.02986648 0.06678314 -0.06946688 -0.0066467277 0.029980285 -0.03173888 0.011596596 -0.10965426 0.14745599 -0.085066825 0.0003043451 0.12619816 0.0050120587 0.100927144 0.04143736 0.08220042 0.09169515 -0.039688677 0.19918805 -0.14213926 0.11043447 0.12840445 0.12216591 -0.052871317 0.112928785 0.08271799 -0.009429056 -0.06626819 -0.15344821 0.112632595 0.05132989 0.03704386 0.0029714473 -0.14723976 0.06368243 0.028667212 0.039712336 0.1549899 -0.026788766 0.13861313 0.1920302 -0.100606486 -2.8695547e-05 -0.2040275 -0.10631762 -0.1613753 -0.08352427 -0.018634297 0.008318364 -0.2164543 0.037948363 0.0037959612 0.028571267 0.033967413 0.0011143184 -0.12188739 0.18856174 -0.06814843 0.14293313 -0.18855374 0.10205932 -0.0735666 0.120615795 0.150115 0.0915206 -0.04742893 0.020678073 0.115275346 0.10655085 0.06551189 -0.021089759 0.0040570227 -0.044173837 0.16931835 -0.043519836 -0.004233352 0.061650574 -0.2308401 -0.17112562 -0.05209054 0.109479465 -0.03335405 0.12236424 0.056503236 0.030164862 0.0067027286 -0.02500663 -0.047958378 0.14660506 -0.012987165 -0.15321247 0.10746783 -0.04628925 0.02346864 -0.27643117 0.046976678 0.023562973 0.10623551 -0.05991237 -0.003270354 -0.12760937 -0.011596903 0.123954974 -0.030360553 -0.106783465 -0.11495728 0.018735837 -0.07029367 -0.035383515 -0.13874865 0.11654495 -0.03432018 0.16190313 0.18242484 -0.032486286 -0.0028111965 0.17461222 -0.020681087 0.08737691 -0.03035826 0.03276193 -0.13860592 -0.06034569 -0.04220332 0.091500156 0.16810673 -0.18582572 0.16307954 -0.26822877 -0.074010454 -0.0022790679 0.03808401 0.024598144 -0.09959374 -0.095462464 -0.18945092 -0.08098272 -0.061874095 -0.073244445 -0.024288436 0.031770375 -0.011890865 0.09291134 0.06271764 -0.060921386 -0.10473491 0.011491613 0.101258464 0.037261687 -0.016741827 0.11568243 0.08669114 -0.031061193 0.079864815 0.030649848 0.041451767 0.029644698 -0.066551834 0.04526117 0.062152684 -0.17436665 -0.02292523 0.09624584 0.16098423 0.02020232 0.027452158 0.02581646 -0.07178418 -0.19551161 -0.08516285 0.10782081 -0.030770162 0.08741676 0.0096359 0.11314987 0.13454778 -0.08099256 -0.001711056 -0.047883768 0.11096143 0.1428532 -0.08502288 0.21652794 -0.15298513 0.009768978 -0.08116482 -0.21810322 0.03853955 0.07790028 -0.037607674 -0.14275725 -0.11877331 -0.009631316 0.122664824 0.033481408 -0.07876638 0.106182866 0.0392055 0.05270012 0.11297653 0.02384594 -0.17150822 -0.03815475 -0.14867832 -0.04130096 -0.11562303 0.029462866 0.0009322596 0.07862606 0.023784036 -0.066381946 0.031528138 0.112628646 0.05455692 0.15068026 -0.039744988 -0.12347037 0.117469996 0.062715724 -0.07148191 0.0129184285 0.080860905 -0.084291905 -0.16365227 -0.06842043 -0.052507743 -0.076795176 0.10126594 0.03173814 -0.16147673 0.043647233 0.04913093
linear|algebra 0.03929695 0.13276932 0.09371871 -0.064070195 0.12959383 -0.031903215 0.06779926 0.07233964 -0.015260366 -0.14187503 0.11890777 -0.15499975 -0.13560396 -0.10794421 0.1098334 -0.11084609 0.15593754 -0.15611292 0.066585846 0.15293176 -0.022938436 -0.043662142 -0.10714148 0.0307693 0.10695042 0.09036931 -0.041365754 -0.1587863 -0.06593502 -0.13141865 0.09202436 -0.08744922 -0.105285615 -0.123881474 0.02488496 0.06172653 -0.0422854 0.037028477 0.061984733 -0.102979735 0.052102212 0.037888166 -0.09376168 -0.09561382 -0.12488577 0.040320065 -0.12975642 0.15670632 -0.054049537 0.0070158998 -0.12799422 0.10978283 0.0383246 -0.06950635 -0.011378034 0.1461728 0.09374035 -0.03437141 0.064625286 0.021591945 0.013838237 -0.07405353 -0.10305878 0.12993376 -0.054878928 -0.15812655 -0.06317622 0.16286357 -0.17561951 0.06375277 -0.036002506 0.015643517 0.030335937 0.06481736 -0.04930115 0.071944706 0.10817041 0.05004577 0.020254023 -0.14962323 0.04088368 0.14074104 0.09524671 -0.12307301 -0.04897804 0.10565301 -0.009141385 -0.046663865 -0.1542383 -0.030598735 -0.06718472 -0.14114094 -0.10799655 -0.14191848 0.07505007 -0.13423131 -0.11308913 -0.12334852 0.03648924 0.087067015 0.12624446 -0.039172858 0.13839701 -0.08613397 -0.14117518 -0.11660227 0.086859435 0.052470844 -0.14145203 -0.02560206 0.08733098 -0.038844153 0.057784494 0.05744408 -0.08219258 0.0943709 0.016586158 -0.03998356 0.05453186 -0.15616994 0.120125815 0.119762 0.13210838 -0.14607328 0.12116587 0.1536881 -0.13041005 0.14541271 0.08390627 -0.14941151 -0.11347455 0.15686394 0.13462971 -0.06047777 0.12786494 -0.10417756 0.13329725 -0.09699622 0.077048086 0.07442209 0.12557891 -0.10859542 -0.04099191 0.12284586 -0.10195707 0.004197478 -0.11585152 -0.055131886 0.14437795 -0.15569001 0.10200568 0.08840754 0.07678344 -0.09216879 -0.07540992 -0.1166373 -0.017083863 0.10104034 -0.057778 -0.094558135 0.12604512 -0.09286931 -0.03451891 0.05798282 0.15040404 0.03418011 -0.115641154 -0.013257341 -0.03129511 -0.014233519 0.072850116 -0.070741 -0.14715928 -0.11327757 -0.068903774 0.099845015 0.091170885 -0.08596513 0.13207503 0.13433045 -0.03295601 -0.03745692 0.105287194 0.15889478 0.12414862 0.14234021 -0.07438072 0.02965073 -0.04109776 0.038822077 0.023840645 0.11585899 0.12324769 0.032611158 0.056811113 0.06274709 0.12482683 0.08833111 -0.12991421 0.16144173 -0.15326764 0.11973552 0.14208598 0.046451647 -0.069149055 0.0546622 -0.070819765 0.14770724 0.039634928 0.04335785 -0.09985196 0.09772256 -0.018096333 0.13636638 0.13191234 0.0011047152 -0.077151746 0.018294903 -0.14813338 0.03356109 0.12848249 -0.11879462 -0.15901926 0.06940583 0.037581146 -0.16998824 0.086095534 0.023839612 -0.15626174 0.041770715 0.12053759 0.15192346 0.06731292 -0.12772101 0.044885263 0.07905385 -0.05828627 0.1202521 -0.15339407 -0.00840427 -0.00057661603 0.034106705 -0.1544522 -0.06206726 -0.1484707 0.102146864 0.119085945 0.09920081 0.0027771224 0.14791435 -0.12545462 0.10562818 0.1239989 -0.14180267 0.18351196 -0.1474179 0.131774 -0.13311632 -0.028550211 0.11797435 0.0027907752 0.1445231 0.106183454 -0.06769555 -0.028615203 0.040924933 0.14510031 -0.038841754 0.16420373 0.15107313 -0.11321064 -0.024131378 0.13423595 -0.04877978 0.023385454 -0.01256027 0.046275314 -0.056437895 0.12681851 0.10677771 -0.010961436 0.07653459 0.14901502 -0.103162296 -0.051815398 0.031399027 0.086486526 0.024706116 -0.089605875 -0.14643061 0.031352792 -0.026219573 0.13460338 0.07410331 -0.13719143 0.100947864 0.13932484 0.14755185 -0.06467335 0.02903851 -0.11138173 0.110493734 0.08481635 0.079870135 0.12379441 0.07535489 -0.00909397 0.088808 -0.010388988 -0.11007339 0.09649859 0.122876085 0.1521235 -0.0075394027 0.04041321 0.044029657 0.07330635 -0.14766788 -0.14646256 0.08361227 -0.17270319 -0.10453526 -0.16916224 0.091514684 0.068194404 0.033741295 0.13629195 -0.13848501 0.031569395 0.07418007 0.11452732 -0.006858638 -0.13394211 -0.11819699 -0.08734376 0.14191853 -0.08746135 -0.10965341 0.11373721 -0.04587103 -0.026555276 0.11225016 -0.09833727 0.110089675 0.06008542 -0.12825997 0.11294301 0.07992472 0.03678164 -0.12798199 0.08031132 -0.1244096 0.05936116 -0.043489125 -0.11358042 0.044302236 0.15386026 0.10950907 -0.13317652 -0.17222121 -0.08523517 0.13469961 -0.0128775565 -0.02696728 -0.10724924 0.09893843 0.0153326625 0.14560208 0.035724323 -0.08671556 0.039800115 0.14521447 0.12560326 0.15623382 -0.051378712 0.10848822 0.0012473468 0.13166088 -0.1070224 0.16744004 0.013966364 -0.045015365 0.09565733 -0.120980844
plotting 0.004637811 -0.19834025 0.1309872 -0.12699805 -0.13092971 -0.14957055 0.05394688 -0.08690979 0.17159463 -0.12820804 0.03889518 0.055343177 0.1352623 -0.08186972 0.15190977 0.023080336 0.110700026 -0.1561792 0.019544663 -0.21032408 -0.0951185 -0.11047123 -0.092559 0.016918216 0.14986837 -0.13918705 -0.09664823 0.15049717 -0.13060309 -0.0950069 0.13680845 -0.083345324 0.10151977 -0.010802676 -0.04302371 0.038028285 -0.09939106 -0.12742248 -0.1801457 -0.053984303 0.14225791 0.16228588 0.12316957 0.12061452 -0.13768981 -0.032638565 -0.1452187 -0.18982878 0.17069685 0.1170984 -0.14260991 0.03927579 -0.06923001 -0.084398806 -0.123859055 0.098118424 0.09382043 0.15376788 -0.146051 -0.15764596 0.019279696 -0.09751138 -0.13666783 -0.1348448 0.1472922 0.13657083 -0.10143685 0.012970018 0.028139787 -0.00078831747 -0.08434296 -0.12066008 -0.15359098 0.05655727 -0.10865693 0.06723627 -0.14543264 -0.020915898 -0.17465314 0.15456387 -0.028959386 0.11621911 0.10955621 0.042429674 -0.10163458 0.062800474 0.19513825 -0.09682521 0.20071816 0.08942092 0.16015343 -0.11801097 0.17811915 -0.08867732 0.07434993 -0.103890784 -0.0331219 0.010024951 -0.07953919 -0.16450846 0.08848731 0.06687728 0.06260048 -0.028751692 -0.104362816 0.0388156 0.06762556 0.012835632 -0.1021295 0.049740367 -0.08778395 0.13235977 0.16670178 -0.17572363 -0.109561086 0.15383358 0.10713892 0.02484168 0.10728669 -0.1174482 0.102198 0.11689342 0.09340808 0.04106337 0.0828334 0.028118912 -0.011022898 0.119782984 0.14296728 -0.09439589 -0.14295053 0.14359795 -0.08328682 -0.14860025 0.029854238 0.18303163 0.13474943 0.107313186 -0.16272752 -0.13101943 -0.17526619 0.10150879 -0.00236592 -0.15565854 -0.061501957 0.13680066 -0.09410006 0.15489471 0.010218012 0.20040345 -0.08489665 0.1238816 0.121136606 0.06893193 -0.10659723 0.06622479 0.12579812 -0.06815861 0.0279803 -0.13336124 0.01894752 -0.0735237 -0.14419346 0.0758362 0.044356294 -0.12932654 -0.10080973 -0.08037424 -0.05508498 0.1549933 0.08533172 -0.14525074 -0.08728602 -0.024636688 0.14071897 0.034673937 -0.03201734 -0.105949886 0.14378154 -0.12202115 -0.05182342 0.056055315 0.15503839 0.050116457 0.033947483 -0.02604458 -0.05282086 0.027486552 -0.13637875 0.14404061 0.025521496 0.09616647 0.012387011 0.13450766 0.07041233 -0.18890175 0.14647233 -0.17210284 -0.107750006 -0.2144588 0.14235681 -0.11812113 0.08220798 -0.15566093 -0.12272844 -0.035849664 0.16597506 -0.037572876 0.13177037 -0.03233342 0.17530361 0.026933959 0.17106214 -0.079150856 0.072304614 0.12385148 -0.038101345 0.08569052 0.005474103 -0.13661732 0.07306293 0.0036570153 -0.09808369 0.0552148 0.14586574 0.063993074 -0.004880042 -0.17610148 -0.019120747 -0.034991108 -0.15919337 -0.031493586 0.0152486265 -0.13861544 0.044360664 0.023172876 -0.042985726 -0.16924156 0.06916993 -0.096621126 0.16290258 0.09518597 -0.11368522 -0.07075913 0.07502092 0.058289934 -0.14499444 -0.15095064 -0.081745796 0.09127459 -0.13177271 0.13854326 0.07744329 -0.1009471 -0.11533317 0.06800368 -0.09854728 -0.004324222 -0.048856325 0.050033282 0.06609962 -0.0008899466 0.14475606 -0.11751031 0.1637978 0.13107803 0.09250203 0.037435718 0.10276252 -0.0058140415 0.11591013 -0.08501174 -0.1303288 -0.011639259 0.030522075 -0.03990934 0.17114212 0.0037365188 -0.124765955 0.14060336 -0.086045854 0.086318575 -0.1954505 -0.025383124 -0.0300811 0.13765612 0.09555885 0.06535739 -0.12831596 0.09605481 -0.10710994 0.17649117 0.13817307 0.07703549 0.00041676988 0.06750372 0.06921591 -0.026288928 0.16743861 -0.07333009 -0.084284306 -0.03919856 -0.18100256 0.10899132 -0.051730756 0.09688362 0.12105525 0.12986182 0.15001373 0.10581068 -0.16698435 0.15010831 -0.11345346 0.15335408 0.10325967 -0.036207862 0.16917689 0.0708719 -0.10759247 0.033369545 0.039965257 -0.103346504 0.16908516 -0.13211985 0.07269587 -0.13687457 -0.0011214168 -0.0075317076 -0.10628336 0.07173037 -0.014330856 -0.04596804 0.057474747 -0.027340634 0.10061732 -0.15479068 -0.15744519 -0.012975413 -0.17117271 -0.013102249 -0.09176925 0.037012544 -0.099226855 0.12535955 -0.18529168 0.10597357 0.059594397 0.017688747 0.14449741 -0.10588401 0.15498175 -0.14125621 0.08903571 -0.14465004 0.09564531 -0.1622497 0.023996543 0.037336756 0.04164457 -0.034416836 0.12143432 0.11227136 -0.18842977 0.135051 -0.09762722 0.04848428 0.06776447 0.10719923 0.08296606 0.11672094 -0.07825352 -0.01090379 -0.06639677 0.015914422 -0.044280495 -0.069969885 -0.15284514 -0.1331169 -0.064188376 0.09732348 0.16311255 -0.15545811 0.08003532 -0.035467014
specify|none|if|want|to|read|whole|file -0.15462247 0.09380936 0.025793355 -0.072244525 -0.11562202 -0.063562155 0.04359209 -0.041050307 0.08680271 -0.0719957 -0.018333936 -0.1533463 0.17308939 -0.07983781 0.11377524 0.11572281 0.084442936 -0.0047297613 0.1251409 -0.15372096 -0.15999877 0.08633773 0.19645685 0.12163825 -0.10855777 -0.14765988 0.16900198 0.20077732 -0.05884688 0.011359337 -0.12143984 -0.16452596 0.052476197 0.03811698 -0.12128996 0.114505984 -0.056969266 -0.00844371 -0.14355487 -0.10810911 -0.06847302 0.025459869 -0.11515091 0.1374013 -0.09449796 0.15457779 -0.11812222 -0.17251886 0.18392555 0.04961525 -0.11208167 0.014330645 -0.08721745 0.079726435 0.12802798 0.07700872 0.03238339 0.0867341 0.16205047 -0.16326593 0.06856914 0.001969057 -0.0585 -0.07406691 0.14847681 0.18549153 -0.13176364 0.17903687 -0.05618472 0.13377234 -0.10608839 -0.1823849 -0.1132734 0.078731626 0.048256405 -0.114342116 0.028956162 0.15488638 -0.14347057 0.07082464 0.15787563 0.1482952 -0.042630784 -0.15748796 -0.083405964 -0.15297742 -0.11612444 -0.09645691 0.16046856 -0.10095648 0.16444398 0.004733656 0.11325387 -0.057031203 0.047068387 0.18547769 -0.08203428 -0.11673858 0.08770312 0.13093558 -0.1965054 0.178046 0.1177555 -0.044571634 0.12755963 0.14607675 -0.036001343 0.123488724 -0.12871288 0.17923234 0.16274674 -0.13570549 0.03555783 -0.17185944 0.07751983 0.11727639 0.02117857 -0.11221025 -0.010887995 0.034174748 0.15129028 -0.08188169 -0.14086579 0.18700588 0.15790552 0.14056328 -0.037141293 0.07840531 0.07931018 -0.027450033 -0.006022643 -0.10654891 0.04193717 0.082012445 0.02714831 0.015649274 -0.103410006 -0.1515194 -0.15731457 -0.02367783 -0.031759467 -0.11153647 0.12725481 0.031375647 -0.12443844 -0.0672052 0.0077487035 0.054796766 0.05777173 0.0852497 0.11119823 0.17980677 0.012430317 -0.15462954 0.06516719 -0.116051644 0.16166577 -0.14968741 0.04821347 -0.06830221 -0.08941204 0.06783069 -0.13866319 0.15286624 0.006411135 -0.07263375 -0.06475492 -0.11894043 -0.11806808 0.14994892 0.10007683 0.044064786 0.012742493 0.032297578 -0.012626545 -0.05426043 -0.17843212 -0.09937008 -0.03549316 -0.083810024 -0.059220746 -0.0700632 -0.014876303 0.14388639 -0.04982371 0.054816194 0.15541911 0.07554601 -0.074431114 -0.061354585 0.17447016 -0.18660165 0.089823864 0.15595756 0.15456858 -0.10247014 -0.0020968493 -0.16464855 -0.10276963 -0.18493411 -0.0060737114 -0.13745801 0.013352077 -0.035469245 -0.16023974 -0.059786055 0.11717203 -0.20511542 0.062175598 0.14634621 -0.11123635 -0.12870501 -0.1139635 -0.10586372 0.0061077736 0.04422408 0.12520777 0.034236684 -0.10041156 -0.10468035 0.008508915 -0.016235482 0.008711966 -0.001323803 0.06595253 0.17073807 -0.17127694 -0.054068387 0.05777581 -0.1351623 0.100936405 0.15896669 0.11454968 -0.092419975 0.1761419 0.08388826 0.013376505 -0.107832804 -0.10250951 -0.13417484 0.16754909 -0.10103342 -0.1854335 0.052919287 0.078103855 0.073070414 -0.13239227 -0.09928383 -0.103717 -0.07500764 -0.020469392 0.16407335 -0.02254828 0.086335875 0.06106106 -0.11158216 -0.101481296 0.076305866 -0.09030587 -0.18289322 0.12383122 0.048183452 0.13052994 -0.15578803 -0.11354874 0.019880032 0.07335683 0.10353835 0.017867412 0.05342981 -0.14919719 -0.03955493 -0.162488 -0.14838669 0.07561532 -0.17148569 -0.10541291 -0.0583237 -0.17116228 0.110794485 -0.03671346 0.08709257 -0.15490755 0.19392578 -0.10709316 -0.15800506 0.060086697 -0.051156804 -0.15201506 -0.097367615 -0.1891511 0.0800186 0.123584636 -0.046740547 -0.0096052755 0.16346689 -0.051515047 0.026115905 0.024075849 -0.013002511 -0.02580924 0.038564824 0.0047843577 0.040314615 0.1496298 -0.017781742 0.04598498 -0.015521659 0.13326006 0.05531968 -0.07857541 0.04296802 -0.041115507 -0.13105331 -0.13934511 -0.08564411 -0.09196416 0.056003187 0.11637729 -0.13115866 0.066164605 -0.15146986 0.20798123 -0.0043075345 -0.13571458 -0.12702703 0.050486993 -0.0122774895 -0.13081479 0.060221232 -0.13406065 -0.11311646 -0.08819811 0.022649938 0.015425615 0.12335066 -0.13688838 -0.050450638 -0.055245228 0.08838537 -0.13044077 0.14074779 0.15281941 -0.124506645 -0.10995189 0.17457904 0.09397458 -0.17112234 0.04195727 0.17649402 0.16048385 -0.0830324 0.13523826 -0.026861358 -0.10210835 0.16498631 -0.0794007 0.121746875 -0.020879071 0.13445786 0.16038905 -0.13555552 0.16650765 0.08803943 0.15886806 0.05259221 0.05036273 0.113594 -0.0040497053 0.17027207 -0.14825918 -0.00237717 0.17309277 -0.18365288 -0.18278435 -0.17489697 -0.024722848 -0.16712135 0.121328734 0.111021996 -0.07397242 -0.028468184 0.043609504 -0.15713444
create|x -0.14326155 0.22341996 -0.16391091 -0.18265788 0.14315288 -0.14344215 0.17045797 0.005367032 0.12472992 -0.096705176 0.14928947 -0.088813946 0.22091985 0.013626753 0.016214123 0.19872387 0.1768823 0.08612439 0.06120857 -0.14159329 -0.01311411 0.07942932 0.040208433 -0.002295812 -0.040235404 0.034282237 0.08430555 -0.15506686 -0.084275894 -0.066649556 0.04733568 0.09961725 -0.063024595 -0.000316759 0.119670674 -0.008216955 -0.14109679 -0.16265726 -0.047557987 0.06290708 0.19017154 0.14982188 -0.07467808 0.097038455 -0.18009403 0.03498454 0.07181559 -0.13489 0.039168272 0.1838239 -0.08662162 0.07103525 -0.12465497 -0.080167376 0.08249018 -0.012119989 0.043250613 -0.05251993 -0.16832443 0.12806992 0.05615489 0.07179392 0.12838575 0.13618006 0.20735762 -0.104852445 -0.025425218 0.08104905 -0.13230999 0.07534653 -0.21886064 0.07936925 -0.11597592 0.04277416 0.03358096 -0.21201387 0.11544672 0.07626498 -0.1434577 -0.09877603 0.024583265 -0.109675415 -0.1701215 0.108375184 -0.12028507 0.15706469 -0.020332608 -0.13154128 -0.18298003 -0.15342426 0.07225768 -0.11260606 0.111950584 0.007960367 -0.02356929 -0.12094395 0.05129598 0.10453626 0.047805604 -0.098973125 0.01799585 -0.08858008 0.123823516 -0.080143265 0.04603942 0.00385861 -0.015551535 -0.08303523 -0.13976519 -0.035966285 -0.03625253 0.10991795 -0.13784783 0.01379904 -0.13027902 0.017068693 0.069669046 0.17428063 -0.08950699 0.013882078 0.15559748 -0.046797488 0.10463108 -0.11042845 0.014503001 0.049560882 -0.11844297 -0.081529535 0.12908126 -0.03634179 0.008711673 0.06296711 0.11796708 0.19983377 -0.11702386 -0.17738222 0.01339356 0.08448089 0.12010438 0.058755957 0.07187289 -0.023859583 0.122395605 0.17121914 -0.1341535 -0.18012716 -0.16198249 0.13479564 0.0956124 -0.09488262 -0.18007186 -0.062274832 0.10403938 -0.14222603 0.05079221 -0.09347673 0.16262577 -0.14393103 0.02572103 0.09395517 0.18174516 0.17334475 4.3508517e-05 0.16558921 -0.004662253 0.055501677 -0.015676882 0.017773047 -0.005742747 0.08553032 0.0014413374 -0.05287965 -0.08506575 -0.037413057 0.11083827 0.12568755 0.12755434 0.024737163 0.041611884 -0.23356247 -0.10757394 0.19246219 0.06261812 0.09437513 0.08384273 -0.057968374 -0.16280639 0.076910846 -0.081834465 0.1702372 -0.0064454325 0.083129905 0.21903703 0.07388785 0.0019014243 0.079922825 0.10109756 0.03608964 -0.1142646 -0.08494643 -0.06627552 0.09580373 0.11426915 -0.2204586 -0.021932762 -0.14079438 0.11636041 -0.043027338 0.17335054 0.16945812 -0.10634844 0.11759296 -0.13676785 0.002838853 0.12974826 0.0011566059 -0.16651537 -0.06913194 0.038459525 -0.1511214 -0.07166366 0.21284531 -0.119986705 -0.009012401 0.122644044 -0.13637708 0.0064469613 0.024471778 -0.14136417 0.18461294 -0.0108054 0.098682664 0.04732243 -0.13433804 0.13676888 0.15490228 -0.11449058 -0.20042202 -0.051114038 -0.17503645 0.17285155 0.091555946 0.027373051 -0.12257476 0.01432524 0.13789262 -0.12589589 -0.20789294 0.110509954 -0.042221047 -0.1549566 -0.037479755 0.15069334 0.05094739 0.18223532 -0.09206196 -0.06647072 0.09292926 0.09448322 0.07832409 0.020451704 0.012985444 -0.11492672 -0.07976996 -0.121823005 -0.20112251 0.1466885 0.18212265 0.010250159 0.051421195 -0.07118001 -0.12518996 -0.038532615 -0.20306545 -0.049702294 -0.096045375 0.16925025 -0.03271437 0.15792428 0.13999872 -0.19330761 -0.006833951 0.05244394 -0.16504538 -0.17529444 -0.11232347 -0.06282094 -0.10707019 -0.13906711 -0.12690502 0.05140441 -0.06501744 0.14956446 0.018624013 0.13855676 0.06179247 -0.08883924 -0.2163863 -0.06511801 -0.029989803 0.06382759 -0.13741668 0.1855112 -0.12784038 0.1276446 -0.0019609213 0.19544552 -0.011857905 -0.005603507 0.16846235 -0.101952046 0.12940635 0.19607447 -0.068939194 0.18630128 0.18594168 -0.12527682 0.056686956 0.12214203 -0.10386336 -0.08438147 0.012849727 -0.10422348 -0.081490874 0.07543876 0.1398135 -0.0880674 -0.08821717 -0.12647864 0.06252415 0.13766289 0.03940234 -0.017889088 0.17749971 -0.12319752 0.07137533 0.008713735 -0.017590696 -0.00168876 -0.07662389 -0.069735646 -0.023933947 0.018238718 0.1165528 -0.030008458 0.10963095 0.12142412 -0.16211686 0.17947307 -0.14663991 0.0043655266 -0.07547667 -0.004701459 0.057116006 -0.15453933 -0.06909161 -0.024002088 0.1301759 0.23331761 0.12919219 0.12679964 0.11374474 -0.03947253 0.0701349 -0.13651419 0.02921653 0.036377303 -0.01735392 -0.006530206 -0.033953488 0.091236435 -0.15994565 -0.11142999 0.0534582 0.094648406 0.10456508 -0.054768007 0.06186831 -0.17502616 -0.06376094 -0.1805965 0.0803298 0.14031693 0.06799902
check|your|answer 0.0007342031 -0.05176894 0.03858926 -0.0643943 0.002749631 0.049917847 0.008074679 0.13463812 0.0017628011 -0.09304883 0.050782256 0.11649395 0.16992122 0.112909555 0.057819415 0.13491349 -0.060190532 0.06464001 -0.038414363 0.061049975 -0.16119468 0.18383756 0.18415688 0.12527193 -0.024595961 -0.11226879 -0.11752612 -0.112320825 0.015220111 0.14804311 0.0041625295 -0.062430706 -0.15218894 0.036685944 -0.11153104 0.044174876 -0.19903201 0.07181638 0.049819298 0.02341351 0.017861243 -0.013306174 -0.069356225 0.21190439 -0.03276061 0.05402082 0.1842062 0.112325005 0.18860275 -0.117417924 -0.14419322 -0.011355614 -0.16509941 0.106236465 -0.062041145 -0.0036106054 -0.07471046 -0.062369484 0.035233065 -0.050887488 0.099879235 -0.15816672 0.10399937 0.08993705 -0.088377625 0.19938701 0.0019113717 -0.034811277 0.15141882 0.09194077 0.12085255 -0.12252434 -0.106138125 0.20748042 0.10231239 -0.12638165 0.08293861 0.07933535 0.12826672 0.1523924 0.14863905 -0.13022523 -0.19254981 -0.11968763 0.048754267 -0.1301803 -0.08319811 -0.09199359 -0.19347815 -0.20679165 0.15619405 0.16312952 0.13733068 -0.0027968325 -0.03811207 0.06822267 0.121593334 -0.16351299 0.1703346 -0.031130366 -0.07759276 0.0096910875 0.054019917 0.17060573 0.037820987 -0.044866987 -0.026773268 0.094925314 -0.020623699 -0.12044093 -0.21244922 -0.13110699 -0.028826585 -0.090647146 0.06429383 -0.10684272 0.02620571 -0.12901127 0.08178601 0.14629297 -0.011077866 -0.16951741 -0.20377037 0.17304614 -0.02949534 -0.07071009 0.11894622 -0.12582222 0.0844908 0.14433211 -0.10275127 -0.15609512 0.12115835 0.14524747 0.12948935 -0.026604738 -0.14853404 0.17510478 0.043711767 0.14104117 -0.011811785 0.02848977 0.20180327 -0.094414055 0.11121453 -0.0007857807 -0.015078246 0.15259822 -0.04227161 0.0023631793 0.024161678 -0.14133057 0.057667337 -0.098767094 -0.090889506 -0.075046696 0.14085694 0.078933656 -0.08684748 0.10762729 -0.10029937 0.14649141 0.13578716 0.1683492 -0.052921183 -0.019994328 0.08405009 -0.11880674 -0.16612981 -0.0810442 -0.17377579 -0.07882385 -0.13157706 0.0074774115 0.008587536 0.17818159 -0.16442972 -0.039726008 -0.018968021 -0.16425137 -0.092319176 -0.07925394 -0.09434267 -0.083768025 -0.0999376 0.113380484 -0.09723994 0.041258655 0.020624528 -0.14593886 -0.0904093 -0.13608912 -0.082634024 0.033709634 0.07930431 0.07868903 0.072373524 -0.10947033 0.1597322 0.04627027 0.08775852 0.026811603 0.13897127 0.09012722 -0.13977757 -0.052975826 0.09246101 -0.082384534 0.0060526812 -0.053051226 -0.17969069 0.016431782 -0.10967465 0.13358723 -0.16909954 -0.15896542 0.14619817 -0.08118701 -0.16759919 -0.09227683 -0.11932545 -0.08976432 0.049192224 -0.073714286 0.05781624 0.19308263 0.05433087 0.043672312 0.19337137 0.14055748 0.06847133 0.02396468 0.0046400516 -0.07228129 -0.14386149 0.009582453 -0.04964253 -0.10133447 0.12099933 -0.10299881 0.025857786 -0.13038388 0.11460359 0.029443957 0.015509857 -0.09864624 0.016553547 -0.16472931 0.1672727 0.020280467 0.069663055 0.020460248 0.14177951 -0.040550064 -0.15900525 -0.0682309 -0.22136456 0.04692223 -0.17400254 -0.10486956 0.15946154 -0.0074331374 -0.019940576 0.04897348 -0.071539655 0.023223525 -0.097073965 0.1157545 0.00034202923 0.053343285 -0.082048886 -0.10243951 -0.16740899 0.04474651 0.09542887 -0.040004652 -0.037070498 -0.03501226 0.16822785 -0.1732755 0.10424537 0.0443188 -0.16400534 0.006179745 -0.0015043422 -0.06058832 -0.07450316 0.16002798 0.16773556 0.16555478 -0.04783681 0.084414236 -0.17636555 -0.04874213 0.071431816 -0.02933195 -0.029463233 -0.014855953 -0.14867346 -0.08673848 0.0044860197 -0.24334721 -0.094619825 0.041173976 0.08524064 0.15649982 -0.07927723 -0.060381923 -0.062442396 -0.04455977 -0.09316687 -0.07631645 0.1332439 0.028512273 -0.110871404 0.020863963 -0.066712126 -0.101641126 -0.01915459 -0.17879781 0.09639304 0.031249873 0.039568737 0.058864743 -0.102465935 0.0026524654 0.064793564 -0.08409614 -0.1348261 -0.10503998 -0.20944333 0.019051142 -0.05197776 0.21066532 -0.10424141 0.010401511 -0.018097399 0.06761118 0.05141164 -0.08650911 0.099019885 0.12347382 0.14579384 -0.048903245 0.12185547 -0.0911484 0.15724513 -0.054383337 -0.12539124 0.16943642 -0.030319877 -0.010616314 0.13582028 -0.010516673 -0.11307631 0.11258174 -0.028448688 0.02608574 0.24611814 0.19597948 -0.10856358 0.044866893 0.18378037 0.15133908 -0.005278879 -0.09565683 0.03434945 -0.12473733 0.09919386 0.21112108 -0.2102069 -0.09609361 0.03983805 -0.06495435 -0.119755045 0.04856414 -0.1834467 -0.07841599 0.14840563 -0.12646356 -0.04783073 0.13312817 0.16922802 0.13864654
model -0.010140267 0.11824709 0.00020710303 -0.1181213 -0.17734233 0.013447559 -0.04814115 0.15367028 -0.026844615 0.05029155 -0.030284008 0.07286687 -0.008989631 0.08898848 0.0018958842 -0.061247744 0.037582353 -0.069638535 0.123811275 -0.012395269 0.036863808 -0.020360125 -0.0062117204 -0.0012534971 0.043822616 -0.0008000291 0.023106128 -0.12910347 0.085278556 -0.07585612 0.0866911 0.117583476 0.022812953 -0.14143598 -0.12696083 0.028323365 -0.10393327 -0.049717292 0.118510894 0.059692644 0.037943557 0.040005133 -0.03522941 -0.03232708 0.07307349 0.07556119 0.082385115 0.043998793 -0.116318025 -0.0434073 -0.079728626 -0.03514665 -0.017513443 0.09816464 -0.14148818 0.046102725 -0.027788479 0.04484051 0.107173935 0.032089897 0.046411663 0.001295631 -0.008585021 0.12722288 -0.05546893 -0.008526074 0.0048163286 -0.090888366 0.054785207 0.0061582834 0.10308742 -0.09072053 -0.053407993 -0.0072495155 0.08486045 -0.050244022 0.08298017 -0.052465864 0.016974062 -0.08797802 -0.04264321 0.015675543 0.11760648 -0.14621562 0.0059562325 -0.0755557 -0.10300394 -0.036603417 -0.1553735 0.084747836 -0.06359632 -0.08190058 0.027122036 -0.116472974 0.07287237 0.09265385 -0.05964782 -0.06525284 0.13061716 -0.06547968 0.059448875 0.07813892 -0.060257867 0.04096036 -0.035235684 -0.09040904 0.07852073 0.16352156 0.06331147 -0.05786278 -0.14050087 -0.0678118 -0.15345247 -0.05255698 0.06275731 -0.04722163 -0.12870148 -0.012703455 0.066875316 -0.0854212 -0.029441938 0.044637464 -0.12436931 0.04096725 0.01901455 0.096576884 0.0682753 -0.032117303 -0.113404125 0.11357007 -0.023199668 0.08111518 0.16240227 0.008155181 0.005037479 -0.13561964 -0.056189902 0.15479761 0.080763124 0.08204978 0.18624763 -0.107106745 0.052474953 0.006913 0.03127076 0.017163701 -0.03443508 0.112453885 -0.030500703 -0.014252755 0.13225313 0.05531776 0.023045473 0.08982614 -0.06239893 -0.124962345 -0.15002668 0.16196473 -0.097433455 0.001978968 -0.112742946 -0.08990745 -0.008507383 0.107035235 -0.017956255 -0.06917001 -0.013700252 0.0347108 -0.046035517 -0.011517635 -0.029376289 -0.05023102 -0.024652705 -0.032850172 0.012072843 -0.03461379 -0.011530424 -0.033774428 0.11038565 0.06772553 0.05067543 -0.020581247 -0.01190419 -0.09969107 -0.09479324 0.19336939 0.08165702 -0.15765284 0.07171823 -0.17773679 0.058923304 0.089924574 -0.18513499 0.03300389 0.011172444 0.0852591 -0.053945396 0.056422107 0.08443026 0.11047711 -0.07487885 0.09684775 -0.11132662 0.032268878 -0.015517868 0.13263577 -0.112045065 0.085084625 -0.18125021 -0.01776743 -0.118159436 0.16640131 0.0769704 0.05480455 -0.11911192 -0.019240854 0.07633776 -0.002846581 -0.038032837 -0.14437774 0.08833463 -0.15649724 0.07468964 0.044581894 0.011588209 -0.015009138 0.1617063 -0.10304279 -0.06992849 0.13534465 -0.017137744 0.050593965 0.052538447 -0.09770028 -0.15110397 -0.06503167 -0.19136018 0.018344179 -0.034704708 0.1118055 -0.067502774 -0.03882853 0.14342964 -0.057709266 -0.003635907 0.08003836 0.21293618 -0.047301352 -0.02497861 -0.0954395 -0.11928131 0.061536334 0.07564919 0.08678558 -0.15428694 -0.11638917 0.06583195 0.07276426 0.08258407 -0.016701568 -0.049671993 0.1364022 0.05645744 0.07535653 -0.06371304 0.067604735 -0.121929586 0.010934648 -0.05863707 -0.031086782 0.043415792 -0.031754997 0.035811488 0.1522757 -0.009866642 -0.08438845 -0.008402955 -0.05683008 0.1448756 -0.022780402 0.0015096144 -0.022324044 -0.0091756815 0.04546854 0.039113734 0.05484682 -0.046584498 0.09571493 0.00849983 -0.053039618 -0.0181659 -0.095821686 0.10488879 0.1282031 -0.03858784 -0.07941828 -0.03573065 0.112092264 -0.0787155 -0.03334533 0.055232212 -0.013447358 -0.00987542 0.079902485 0.13777846 0.07990787 0.014198958 -0.006341091 0.035661124 -0.12866816 0.045393955 -0.022501562 0.04220554 0.116850816 -0.024440639 -0.092929184 0.060358617 -0.124761485 0.08854698 -0.0602259 0.053723738 -0.03710968 -0.10215719 0.16029613 -0.011239705 -0.048428632 -0.065771386 -0.1857351 0.053009942 -0.08369006 0.01156167 -0.060862295 -0.14232957 0.15158004 -0.22041494 0.079030454 -0.07145165 -0.01760871 0.11015521 -0.030947426 -0.123197325 0.11381126 -0.0398473 0.073907144 -0.007161487 -0.023327097 0.0764233 0.041737296 -0.078787096 -0.12337055 -0.14648321 -0.055881154 0.07227273 0.08398609 0.05992962 -0.030665567 0.044080112 0.05770485 -0.13394122 0.11957002 -0.016695542 0.15580261 -0.07612437 -0.049197685 0.12559599 -0.04545346 -0.1486281 -0.034334287 -0.028461305 0.072475955 -0.025355494 -0.0070341164 0.0107816 0.008218838 0.086361334 0.07871581 0.0072098924 -0.084896766 0.11769644 -0.121584535 -0.094853744 0.13846916 0.06799039 0.047454596
fit|rfmodelonfulldata|on|all|data|from|the|training|data -0.064332 0.024491927 0.15128994 -0.020955902 -0.14810245 -0.10891268 0.18024799 -0.15900508 -0.18716374 0.14350232 0.020911569 -0.08452601 -0.11777763 0.008344893 0.002706826 0.13461564 0.11664881 0.19464184 0.117453 0.13718733 0.00034017419 -0.11908731 -0.12279182 0.05130339 -0.15259778 0.08053316 0.18862809 -0.018124085 0.135059 -0.09672387 0.008219042 -0.04044203 -0.15095045 -0.087251514 -0.12908822 0.111373864 0.07563659 -0.017155768 -0.11962635 0.12830374 0.08907631 0.1086533 -0.07166124 0.06807318 -0.04768112 0.08643018 -0.0832116 -0.054489974 -0.032491516 0.0700936 0.14702314 0.165214 -0.11850608 -0.096876904 0.12931135 0.1249283 0.07671041 0.058478106 -0.0052738087 0.02960588 -0.04481407 -0.05395587 -0.06986691 -0.11035156 0.16974483 -0.13707489 0.0062233782 -0.08417398 -0.1220752 0.17420174 0.022352127 0.03391207 -0.09695738 0.1210232 -0.16024427 -0.18871015 0.075181514 0.0516189 0.11694147 0.082222804 0.014947542 0.03138734 -0.013447358 0.10393509 -0.017652469 0.03497355 -0.041021213 -0.074828446 -0.03155538 0.11446244 0.02151076 -0.14433001 -0.09727094 -0.059820913 0.09710444 0.17562337 0.14977989 -0.06344583 0.048584156 0.027443055 -0.013798379 0.16767484 0.19717187 0.104451515 -0.05561693 0.25110438 0.09707353 0.17072296 -0.04271624 -0.13856745 0.020101102 -0.027144324 -0.18045425 0.00241068 -0.13913323 -0.039862 0.15536168 -0.137902 0.11353169 -0.15424643 -0.024963506 -0.16742808 -0.004506319 0.13630927 0.19674227 0.06692924 -0.14965416 -0.04046202 0.10357914 0.051252123 -0.036542702 -0.007713206 0.08040466 0.178408 -0.11069747 0.013894205 -0.1877055 -0.18504117 -0.024455937 0.13586459 0.13311704 -0.009214359 0.094582446 0.018801412 -0.002259993 -0.14314662 -0.110629104 -0.15170084 -0.07661588 -0.023149986 0.08669264 -0.014900889 0.08180196 -0.115615666 -0.13039571 -0.08722921 -0.12319381 -0.12919836 -0.10742507 0.009184904 0.01035065 -0.15328027 0.1357499 -0.08014137 -0.116712414 0.019213649 -0.010616925 -0.14913423 -0.10134912 0.19481021 0.04448801 -0.12560125 -0.06447975 -0.10000781 -0.09238695 0.11606436 -0.08814725 0.07144043 0.11368677 0.03851314 -0.15204433 -0.11144358 -0.10127382 0.18872672 0.12578347 0.06440177 0.14101785 -0.15406843 -0.15097448 -0.14237112 0.043860145 -0.0995754 -0.12125129 0.14472955 -0.116571404 -0.15608482 -0.07751057 0.006201386 0.019669294 0.15864441 0.03067525 0.08797608 0.08368224 0.07757334 -0.12369456 0.19816953 -0.12771362 0.1327918 -0.15154564 0.14895777 -0.13025652 0.10815183 0.018197395 0.1320938 -0.107693136 0.24004662 0.17487541 0.11476402 -0.076800354 0.19440025 -0.0570061 -0.017476317 0.13803461 0.15319432 0.012480135 -0.056987103 0.047427867 0.20166583 0.086129084 0.12875599 0.04598303 -0.03887448 0.14787406 -0.0006628867 0.09530953 -0.064066686 0.04284399 0.014581685 -0.036369577 -0.06226348 -0.17155989 0.01882805 0.07381719 -0.04296651 0.23058397 -0.045946956 -0.08711224 0.009128352 0.04633529 -0.13432701 -0.0399492 -0.059921883 0.0037463969 -0.08281893 0.033586178 -0.053163443 -0.04899867 0.17664923 0.02711279 0.1300185 0.03565041 0.12528314 -0.04462924 -0.14272518 -0.12868582 -0.19698457 0.17587516 -0.08107383 0.043602746 0.11819784 0.024333615 0.1281536 0.12899776 0.11665212 0.04959097 0.07463112 -0.16170116 -0.09596598 0.08969427 0.024508517 0.118353486 0.14024544 0.10644485 0.049036708 -0.03424488 -0.11839332 -0.07436744 0.05570637 0.15066291 0.13492963 0.0367533 -0.09827566 0.15333922 0.0030984737 -0.062195744 0.11311185 0.027876034 0.072639644 0.13051008 0.004076313 0.18428093 0.122663856 0.14979564 -0.06915557 0.06320744 0.08232248 -0.13042478 0.10827707 -0.011339285 -0.016032333 -0.028346447 -0.039302394 0.13070953 0.09548286 -0.15152383 0.050644863 -0.15654077 0.024308408 0.09002335 0.20148316 0.18343496 0.0933244 -0.04331296 0.18478273 -0.069766015 -0.048975438 -0.0726552 0.058235105 0.11637722 -0.08729059 -0.11778725 -0.22128458 0.037239145 0.053779546 -0.03224737 -0.05625319 0.1337726 0.12615873 0.12001443 -0.044816356 -0.1195304 -0.17668508 -0.08404444 0.115820445 -0.06689702 0.19578558 -0.13311362 0.10678005 -0.07263426 -0.18790627 -0.080929734 0.07150022 0.115468405 0.18194754 -0.13956821 0.0018156957 -0.022854174 0.17017913 0.104511 0.12790993 -0.05785593 -0.08792263 -0.055806424 -0.13339122 -0.20305823 -0.091893926 0.15326366 -0.10902055 0.00044361968 -0.010163401 -0.19938062 0.13729644 0.12255284 -0.13376221 -0.19334099 -0.14605771 -0.17177631 -0.04519133 0.016494649 -0.07213885 -0.054033116 -0.07259866 0.06590735 0.17442177
your|code|here -0.087926045 0.20873246 -0.13880277 0.033879932 -0.12567385 -0.0243538 -0.14138184 -0.01783177 -0.111595705 0.030917475 -0.037395764 0.05153366 0.20389675 0.09471827 -0.11806299 0.07009477 0.11708935 0.07443248 -0.1395399 0.16770618 -0.19001463 0.11784188 0.023657437 -0.08947291 -0.20926508 0.18289112 -0.06893131 -0.14215134 -0.03334295 -0.058506135 -0.018438991 0.14058515 -0.14200254 0.112639695 -0.07946249 -0.13151628 -0.065654464 -0.04040753 0.0450902 -0.07592802 -0.1846236 -0.04340136 -0.07089087 0.05667102 -0.04928011 0.012023075 0.099335544 -0.14792918 0.0439981 0.03187374 -0.10272305 -0.07172453 -0.08602704 0.14678416 0.14975385 -0.14111173 -0.06977022 -0.1998868 0.1388225 0.20007865 -0.032643232 -0.02228479 0.10268499 -0.10439059 0.1728049 0.1299305 -0.032027323 0.048395064 0.098583214 0.028579187 0.07885977 -0.08051459 -0.071150504 0.16481343 0.08376449 -0.023705583 0.11718736 -0.006114589 -0.05322164 0.064195044 0.12873417 -0.16585968 -0.14921767 -0.04450877 0.11864935 -0.15011966 0.0037838055 -0.07292015 0.02054644 -0.13808458 -0.018439256 0.0921392 0.15180734 0.042277105 -0.026796715 0.045836613 0.17727536 -0.16782735 0.030264204 0.17278084 -0.022168895 -0.08125161 0.0188745 0.017055472 0.11295034 0.1028313 -0.014976565 -0.068690546 0.063653715 -0.016158808 -0.11183239 -0.14429641 -0.10082037 -0.062891915 0.19244227 -0.14326498 -0.073235996 0.020461913 0.02875896 0.09824407 0.01592594 -0.12043274 -0.0062549477 0.13843809 0.119963594 -0.10244204 0.14916748 0.0029294256 0.0018999852 -0.09693853 -0.048408713 0.024442306 -0.13993722 0.15413304 -0.16846554 -0.14118926 -0.09647021 0.076662965 -0.14946643 -0.00421524 0.0859096 -0.091971904 0.122978255 -0.016790165 -0.14079678 -0.11524439 0.19062302 0.09289738 -0.10608508 -0.05138355 0.0033618268 -0.1801047 -0.16994643 -0.05045374 0.06864744 0.020133812 0.05184317 -0.18233418 0.20996241 0.056115273 -0.10685799 0.04965781 0.036984824 -0.071185626 -0.07163535 -0.038347013 0.16226734 0.04177433 -0.087062925 -0.12298517 -0.094712555 0.04795349 0.12978575 0.09204755 -0.13977692 0.08317884 0.010150891 -0.062306646 0.014010053 -0.15365969 0.08024692 -0.027776087 -0.072442 -0.10777073 -0.14112976 0.010477749 0.030319547 0.017622514 -0.010289647 -0.099762 -0.0020216473 -0.0735518 0.051982835 0.13693997 0.09021075 0.05398746 0.007529753 -0.020767946 0.03114451 -0.10716533 0.17882578 -0.06758478 -0.0660267 0.10093799 0.011471824 0.14569964 -0.053052124 -0.1038432 -0.07594944 -0.004804959 -0.09759313 -0.0057031987 -0.06453809 0.077076584 -0.16468476 -0.0804017 0.077637024 -0.022160051 0.03151979 0.041874602 -0.0959343 0.0794933 0.020974148 -0.1424366 -0.028450241 0.16462502 -0.18831787 0.094534375 -0.0139097385 -0.1343932 0.11635289 -0.043719247 0.029452326 -0.10466338 -0.07736862 -0.10027884 0.062231682 0.02721158 0.16035548 0.041608516 -0.16140045 0.010777299 0.042507745 0.12790404 0.18301038 -0.1296489 0.013441945 -0.14562608 0.12700441 -0.16699226 0.09885208 -0.07312221 0.046109736 0.080201454 0.134338 0.014638347 -0.08084351 -0.024957262 -0.13586569 -0.02726963 0.14531307 0.008895936 -0.017837044 0.014905318 0.07782754 -0.0902038 0.08263556 -0.14829057 -0.056608714 -0.121749684 -0.08403316 -0.05051034 -0.041497774 0.126264 -0.13281924 0.072096094 -0.0839004 -0.07440374 0.09613705 -0.16656536 0.041904688 -0.120661765 0.0744106 -0.12288987 0.16895759 -0.007765935 -0.019260462 0.04689987 0.18259658 0.00418993 0.01993813 -0.05706647 -0.09494876 -0.100329325 0.03413362 -0.013135376 -0.08526093 -0.16682994 -0.119201 0.057347476 0.066841334 -0.1404004 0.02992287 -0.09379979 0.15700758 -0.06624195 -0.115890205 -0.198228 0.035895504 0.11355276 0.0091502 -0.039651044 0.16054706 -0.08789438 -0.1333999 0.011314144 -0.17042503 -0.045800284 0.1345888 -0.18166155 0.1647182 0.11470854 -0.05061072 0.019792978 -0.16846494 -0.09895363 -0.17897822 0.18356764 0.080692284 -0.07180593 -0.121477515 0.037902247 -0.044437584 -0.07013824 -0.12291635 0.157635 0.035849236 -0.013179414 -0.025687993 -0.064243205 -0.083534375 0.046610627 -0.012126281 -0.20611906 -0.11060778 -0.08127848 0.08608674 -0.145134 -0.16476046 0.13585003 0.08300871 0.052946486 0.12467599 0.06513578 -0.06339091 0.020720597 0.028437195 0.1397173 0.14979824 0.20883459 -0.076283306 -0.11383369 0.117555335 -0.08227488 0.01847998 -0.05392183 -0.029268257 -0.11928536 -0.048177037 0.034887765 0.014296592 -0.20815222 0.018643131 0.015702441 0.081633285 -0.19642794 -0.14855851 -0.105236314 -0.119772404 -0.18743679 -0.012940911 0.13237503 -0.13926615 0.15185453
just|uncomment|them 0.097412616 0.01927201 -0.05943691 0.022827884 -0.10827125 -0.06249591 -0.027806608 -0.1098364 -0.1309328 -0.13571052 -0.01512281 0.12595259 0.2119501 0.027386345 -0.00090070354 0.04359118 -0.026339488 0.087972164 0.067661926 -0.09616924 -0.06228095 0.12202812 0.04143389 0.13825025 -0.17830138 -0.19960475 0.05583058 0.17039056 0.07261999 -0.06929288 0.105722785 -0.0029428254 -0.035592206 0.14811318 -0.11385324 0.069625914 0.002275333 -0.11424262 0.00466364 0.039548647 -0.0059837075 -0.16561633 -0.10657808 0.030510826 0.05899905 0.076525316 0.038855247 -0.05925593 0.047753647 -0.08792046 0.14302738 -0.007221928 0.0260036 0.14033495 0.11020415 0.010774017 -0.05765945 0.015962832 0.025388496 0.02453472 -0.21815974 0.0815224 0.04335371 0.12669142 0.06439582 -0.11969019 -0.22580963 -0.13844453 -0.12910764 0.13056387 -0.22784251 0.16933684 -0.09090809 0.11419242 0.089158006 -0.08396874 -0.10856779 0.081354596 -0.17604584 0.009494301 0.0697098 0.07517495 -0.1533949 0.07268939 -0.14612405 -0.08814256 -0.09194135 -0.008597454 0.17709267 0.01449199 0.18414745 -0.12213673 0.14730428 0.015876824 0.0035962253 0.08997859 -0.14869425 0.085764624 0.10025693 -0.04215296 -0.027906328 0.1095917 0.14488932 0.088573895 0.08441445 -0.017060919 0.010421096 0.06268654 -0.21574764 -0.103551805 0.12268085 0.010584451 -0.13936377 -0.11931159 0.15273033 0.080770805 -0.0016574995 -0.065502234 -0.18380027 -0.054101374 -0.041941673 -0.031829465 -0.1023907 -0.065355524 -0.052742057 0.20844707 0.047067802 -0.10918448 0.087705046 0.06019745 0.09296233 -0.1072978 -0.15963376 0.10276409 -0.106277265 -0.02580703 0.030323764 -0.22324193 -0.06526915 0.039540555 0.008853436 -0.0039336383 0.076866284 -0.0006556284 0.093170546 -0.13110456 0.03961174 -0.08820581 -0.041172408 0.11991233 0.00481103 -0.075410254 0.1124954 0.06988236 0.16021954 -0.06131958 0.005664 -0.16220582 0.19980544 0.12566435 -0.15714669 0.027560052 -0.18765388 0.088488415 0.021357682 0.012475425 0.096641734 -0.08471066 -0.032484353 0.037742496 0.25044632 0.11477793 -0.0038382208 0.09544206 0.12885992 -0.16647166 -0.10047413 0.125024 -0.17843975 0.042514507 -0.085236974 0.11461823 -0.07667411 0.101351306 0.15975247 0.037356168 0.11028604 0.08410367 -0.085937925 -0.016467197 0.0690119 0.012601684 0.06890453 0.18393219 0.16454893 -0.18682176 0.06476528 -0.12513085 -0.07638633 0.048141845 -0.024403434 0.08446807 -0.049892686 0.018750887 -0.117480405 -0.15076825 -0.12030543 0.011752993 0.06234402 -0.07082911 -0.090785146 0.022393476 0.008773344 -0.19424705 0.0867319 0.053051867 0.07167147 -0.0598987 0.062462833 0.16329768 -0.064125 0.14431481 0.09775784 0.10145153 0.016556688 0.026270267 -0.16009241 0.10524209 0.0093350485 -0.08326077 -0.040938392 0.11296811 0.06282517 -0.13884811 -0.053609487 0.13397093 -0.13985261 -0.088772215 0.12068996 -0.19406469 0.19403036 -0.1346959 0.12313382 0.077532604 0.11719989 -0.16724034 -0.23246214 -0.0043463954 -0.026984222 -0.1494389 -0.0385525 0.097270474 0.14831723 0.19525555 -0.017827053 -0.047247622 -0.027446559 0.08539104 -0.106153354 -0.07339538 0.080641925 -0.09584809 -0.085511275 -0.19975737 -0.035244934 -0.14427358 0.07764939 0.0191664 -0.0065611755 -0.150544 -0.09756117 -0.09253751 -0.14015575 -0.1857601 0.03901372 -0.013034737 -0.068884894 -0.07307729 -0.16472323 -0.16065373 0.045935333 0.07909274 -0.19331923 0.1499737 -0.069029875 -0.06614813 0.07471301 -0.09898808 -0.013601909 -0.20205253 -0.120565236 -0.103666656 -0.10153216 -0.011290906 -0.10886252 0.044410836 -0.09413702 0.025936635 0.12653486 -0.12030227 0.07418153 0.19949865 0.008626197 -0.1524637 0.058434978 -0.11756311 -0.14431578 -0.057625674 -0.09582826 0.14762625 -0.14100967 -0.06964272 0.032652356 0.19804144 0.090431094 0.08321223 -0.08549553 -0.07027994 -0.08164032 -0.0024251288 0.091501474 -0.12873611 0.10825176 0.044012636 -0.031320993 -0.088446215 -0.040476143 0.0236609 0.07923773 0.19530907 -0.089789174 0.056592837 -0.07310989 0.070249856 0.04311617 0.10915458 -0.048103057 0.14063416 -0.21966857 0.020654535 -0.14588222 -0.064364895 0.17417592 -0.01754384 0.07423735 0.0012398072 -0.043532696 -0.14153849 -0.11918638 -0.009353352 0.11565994 -0.13345855 0.15999536 0.06343709 -0.13015164 0.015668837 -0.1484435 -0.0027838976 0.12105768 0.05573958 0.06470479 0.12430777 0.09759687 0.14794566 0.024461262 -0.14425562 -0.11982055 0.045324016 0.0447585 -0.06724891 -0.0579766 -0.15221767 0.08878697 0.050438996 -0.022783466 -0.05490883 0.095364675 -0.16356668 0.021206776 0.122706264 0.026969159 0.057658117 0.12780637 -0.1686117
feature|engineering -0.08838176 0.10456837 -0.053762216 -0.02427061 -0.1538705 0.08638741 0.0766541 -0.0080618085 -0.0060534324 -0.097265154 -0.033456955 0.046102755 -0.105893925 0.10701378 0.064835146 -0.004019541 -0.12406173 -0.08147746 0.038956385 -0.007654246 -0.07009642 -0.078031056 -0.040579632 -0.024077551 -0.0785546 -0.06261249 0.028393675 0.021749303 -0.06828042 0.09896311 -0.07887985 0.09940543 -0.1593409 -0.116367385 0.104482636 0.13283944 0.05400621 0.036837656 -0.014341439 0.08811248 -0.14901802 -0.10202746 -0.10316413 0.031261824 0.13755438 0.09571233 -0.008392336 -0.104811646 -0.13090579 0.044625644 -0.03796134 0.0555311 -0.03910359 -0.07219374 0.04805525 0.055215463 0.01323233 0.043592766 -0.046388872 0.050287105 -0.04320321 0.08837917 -0.05185948 0.1825809 -0.07482982 0.09627648 0.029419394 -0.024505472 0.076233506 0.098443635 0.06553429 -0.07348682 0.0004906647 -0.10037479 0.05597294 -0.08655683 0.09534633 0.057085343 0.009995909 -0.11052949 0.02671168 -0.075475834 0.0976757 -0.09312583 -0.07181417 0.0736389 0.021139497 0.036355432 -0.13875833 -0.01943658 -0.032145355 0.090996556 0.1051974 -0.041490942 0.032705083 -0.030914873 0.13798866 -0.14300095 -0.0831651 -0.06410073 0.036691427 0.029959885 -0.10952526 0.060235154 -0.069092035 0.063410416 0.087638654 -0.04857134 -0.08841416 0.0922014 -0.12830742 0.02255705 0.06338809 -0.05254823 -0.031430453 -0.094511606 -0.004283257 -0.11775039 0.075742505 0.14931852 0.031864777 0.024167778 -0.014564677 -0.14453669 -0.0072545987 -0.108889155 -0.03582835 -0.04821332 0.014491549 0.14903548 -0.07280477 -0.03812225 -0.01857773 -0.026446564 -0.12402534 -0.18570647 -0.04715261 -0.06961221 0.12797585 0.17045729 0.11770082 -0.07690202 0.04725301 0.007240693 -0.0134759825 0.031559534 -0.028675599 0.07070424 -0.056177147 -0.040340398 -0.0686797 -0.10308181 -0.00817636 -0.012749365 0.0068567246 0.046259344 0.053500902 0.012536 -0.12163414 -0.07217002 0.05693721 0.052302513 0.015128385 0.003616207 -0.0055242693 0.0040437332 0.1215062 -0.098936 0.10753978 -0.12575766 -0.0018145426 0.15746823 -0.10785781 -0.057941087 0.09516075 0.15098383 0.1119824 -0.069625765 0.09613208 0.04768596 -0.1284704 -0.028423015 0.03438831 -0.11567869 -0.03852954 0.06539954 -0.014066726 -0.087168 0.033144448 -0.16426781 -0.03910587 0.10145912 0.025935456 -0.13142443 0.08480234 0.18423915 -0.12581472 0.10734908 0.05287459 0.13016404 -0.05848101 0.18010099 -0.13212077 -0.05192274 -0.1050917 -0.042125013 -0.0010749758 0.025061283 0.069643855 -0.09730396 -0.054469243 0.16237728 -0.058021396 -0.034319695 -0.13813825 -0.123394735 0.13923278 0.097888984 -0.047940135 -0.14423326 0.12584314 0.080554105 0.07345334 0.049654696 0.036459696 0.06324183 0.13930771 -0.09429251 -0.054259833 -0.012039564 -0.05772212 0.010624629 -0.11551249 0.10271449 -0.14596471 -0.09226205 -0.12969695 0.15265583 0.013835847 -0.020382147 -0.16687474 0.1103086 0.06687776 0.077973284 -0.096898496 -0.09453928 0.107189305 0.07281492 -0.011893532 -0.007619455 0.001135974 0.077555604 0.14542624 0.08078273 -0.107396744 0.018321743 -0.02217796 0.10151912 0.023742821 -0.042636566 0.04224866 0.09634926 0.039183952 -0.061384995 -0.16456643 0.018235026 -0.063240565 0.10329873 -0.043105036 -0.08354549 -0.16180305 -0.10332422 -0.18464056 0.11397837 0.1200852 0.091723606 -0.15070066 -0.086940326 0.10398326 0.08742009 0.121365376 -0.13229917 -0.009239217 -0.06023137 -0.0005834808 0.010877317 0.07029346 -0.038317673 -0.028118454 0.11348905 0.1469814 0.0041742767 -0.12180579 -0.10560272 -0.022826858 0.13306724 -0.0524329 -0.013585952 -0.123337716 -0.009734282 0.113273054 -0.03179584 0.052277874 -0.098561786 3.253622e-05 -0.10007445 0.09682812 0.019556439 -0.08174406 0.036903847 0.0023989822 0.12789276 -0.11881514 -0.078453764 -0.058383368 0.04600466 0.013549621 0.08224577 0.046884507 0.0122461505 0.07926827 -0.0634188 -0.061786246 -0.063248776 -0.16519539 -0.010161812 0.10337179 -0.019314807 0.11605781 -0.12501766 -0.13311 0.016060937 -0.0897141 0.01544311 -0.17126054 -0.052076012 0.102076925 0.01937125 0.12506568 -0.057879973 -0.10267604 -0.017522905 0.09492297 0.010638333 -0.12525257 0.08767903 0.04495337 -0.102383316 -0.100404255 -0.043565463 0.026485119 0.11371101 -0.066284455 0.09191489 -0.05916199 0.060002737 -0.114233665 -0.061263446 0.005895829 0.10023735 -0.1063601 0.016676743 0.0417525 0.095741585 0.17825256 -0.085925564 -0.18155697 0.08945663 -0.046688426 -0.07046872 0.056766246 -0.09698494 -0.10297567 -0.136899 -0.056472573 0.15127301 0.08102984 -0.060279164 0.11679676 -0.14075963 0.016314883 0.16779888 -0.10575732 0.082896985
set|up|code|checking 0.08056548 -0.093187094 -0.1334259 -0.045665514 0.03186428 0.13873643 0.16786298 0.114372425 0.052644398 -0.14502275 0.15659751 -0.11227984 0.2337892 -0.14669469 0.15995167 3.1113304e-05 0.08303018 0.024134228 0.1537654 -0.11085362 0.15545692 0.11304985 -0.025225252 0.073110215 0.15999015 0.10153841 -0.05568925 0.025520334 -0.091788456 -0.0066767163 0.12606917 -0.09710382 0.15333752 0.098288015 0.011430564 -0.04753089 -0.1373685 -0.11695137 -0.16696163 -0.09355299 0.06046303 -0.059714563 0.19515558 -0.06288681 -0.09529128 0.06508527 -0.090021685 0.11866629 -0.036656976 0.15898944 -0.0611622 0.13538952 0.07409047 -0.12352379 -0.100698054 0.13351478 -0.05648878 -0.062890954 -0.13287814 -0.04560509 0.18187559 -0.150451 -0.03267776 -0.13611701 0.08541094 -0.038418736 0.09600286 0.051061 -0.00037102267 -0.1474819 0.024937985 0.13818653 -0.10577799 0.119421564 0.10722203 -0.06768262 0.018375546 0.115932316 -0.13918479 -0.16598251 0.08729458 0.05976968 0.0902612 0.00745509 -0.030925637 0.08462823 0.100099616 0.060133763 0.16280672 -0.07865824 -0.11515715 0.054167043 0.107019864 0.16972531 -0.14962277 -0.15790783 -0.19334194 0.20173772 -0.007492077 -0.14459476 -0.032767694 -0.11392277 0.09042006 0.08423825 -0.12075175 -0.1955771 -0.1666866 0.019488204 0.023313835 -0.015427517 -0.05607882 0.23129378 0.076463185 0.037563536 -0.004166415 -0.052513726 -0.0083313435 -0.031676907 0.009503482 -0.14432938 0.10378248 0.058256805 -0.06643495 -0.18705891 -0.06758779 -0.001852474 -0.07039433 0.031269 -0.010836389 0.024898 -0.14869165 -0.0611915 -0.1620053 0.13551241 0.049641058 0.18498741 0.11439688 0.08616798 0.16985124 -0.14887914 -0.16627288 -0.04634447 -0.019229425 0.09744851 -0.10676843 0.033735096 -0.043438707 -0.011014148 0.027015412 -0.11676849 -0.1611296 0.17533182 -0.07902197 0.05976734 -0.14588301 -0.046405993 0.120059006 0.09678735 0.073517084 -0.030785628 0.16532017 0.15492505 -0.12034629 -0.13727696 -0.14831236 0.10476764 -0.08356641 0.16135927 -0.03759566 0.109983176 0.0893425 0.021430409 -0.060000997 0.06409937 -0.11724224 0.009136005 0.017006384 0.0068971408 -0.050758168 -0.036238212 0.07943613 0.2183459 0.014165045 -0.037229598 0.03530624 -0.13701819 0.046327274 0.20407602 0.01884062 0.06782673 -0.1985028 0.03821663 -0.03898383 0.13118294 -0.10235322 0.12842542 0.10660659 0.11391948 0.08484299 0.08550477 -0.15097357 -0.18097425 0.037686713 -0.16375981 0.1252445 -0.13623582 0.07695843 -0.077224135 -0.0045031556 -0.09367268 0.07294121 -0.022294763 0.015435048 0.13216476 0.10571003 -0.13318862 -0.0718282 0.14918646 0.014273631 0.07360414 -0.068915084 0.166654 -0.07957948 0.051434495 0.103672475 -0.08370534 -0.17144507 -0.11056394 0.12732743 0.08318939 -0.20657584 0.11719675 0.115019515 -0.06268409 -0.05082935 0.12269662 0.1349348 -0.17442764 0.10475838 -0.09392164 -0.14476232 -0.032194022 0.076303884 0.07802596 -0.14515911 -0.0385299 0.04009946 -0.16313855 0.10888364 0.1791642 -0.11475775 0.07018102 0.0056625186 -0.084279805 -0.061493866 0.101119466 -0.095387176 -0.14251928 -0.07272539 -0.05027733 0.15091896 -0.09863623 0.055210993 0.09818388 -0.028839914 0.12793122 0.06370799 -0.040128343 -0.09802969 0.09612835 0.17757562 0.07692395 0.17332512 -0.16102521 0.012027008 -0.022763664 0.1243433 0.10801763 0.09432189 0.018085238 -0.13258652 -0.06528065 -0.1575468 -0.05848201 0.198135 0.00771279 0.0906155 -0.10971013 -0.013094632 0.22258744 0.08503606 -0.012651405 -0.11189265 0.09480951 0.038404305 0.07054592 0.06535949 -0.08956179 0.16140473 -0.16623192 -0.05243559 -0.18955295 -0.13995466 0.018065033 -0.14343204 0.0941783 0.09671705 0.12545139 0.13680291 0.17425308 0.0077271527 0.02594319 -0.11707631 0.14222008 0.12693757 0.0300827 -0.15710796 -0.008517517 -0.08559711 -0.017939199 -0.05563171 -0.13679826 0.117071964 -0.22391084 0.1387481 0.16201907 0.0682115 0.08250257 -0.14334752 0.08868178 0.106583364 -0.056709684 0.0935983 0.020023454 0.19343732 0.031585086 -0.08645316 -0.07546785 -0.19315663 -0.12013277 0.16487935 0.07148187 -0.17409493 0.053205904 0.014455227 -0.053320568 0.107709385 -0.17265284 0.11076708 0.0066132816 0.075273365 0.004899196 -0.06596633 -0.18097791 0.1834724 -0.008528393 0.061488915 0.035085004 0.11871475 0.07981871 -0.11779179 0.120097026 0.13726504 -0.15053374 -0.06719893 0.019343475 0.05526022 -0.06904372 -0.023653094 0.123565 4.8205053e-05 -0.08414257 -0.074154794 0.014486317 0.13589987 -0.080851056 -0.13094717 -0.040914066 0.040135182 -0.11983595 -0.11286574 -0.09078289 0.07844879 -0.045011543
preprocessing -0.06694447 -0.059436686 -0.006452568 0.051877722 -0.0060953083 0.15750962 -0.08875589 -0.113639176 0.11553901 0.015924018 0.07530948 0.040295236 -0.096153274 0.13960455 0.09305397 0.05384932 -0.1793808 -0.015340129 0.05175582 -0.15745893 0.032473687 -0.008661294 -0.095475934 0.04120872 -0.014444401 -0.18470122 0.06442538 -0.04421437 0.049062308 -0.0175597 0.05673505 -0.037061777 -0.09258012 0.13567948 0.05956229 0.10277591 0.020096956 0.063049 -0.08031545 0.10374385 -0.040230535 -0.052949775 0.02342799 0.045231365 0.08203993 0.063848585 0.14334802 0.07871183 -0.14779915 -0.031130116 -0.09830467 0.032565992 -0.060521152 -0.09939458 -0.0043370724 -0.12767613 -0.099284165 0.030019877 -0.009197187 -0.048679296 -0.18056272 0.15912099 0.16943769 0.026029393 -0.0025787554 0.026664404 -0.053766817 -0.15236413 0.006409346 0.005525202 0.09449257 0.015756628 -0.039547622 -0.08802201 0.02903941 0.0021206075 0.091315106 0.10920349 0.080536194 -0.04265386 -0.0899316 0.014682103 0.05852368 0.1204868 -0.10125139 -0.10178771 0.07010563 -0.10539982 0.010671873 0.029706568 0.026819061 -0.047658205 0.10910661 -0.001815839 -0.050545573 -0.1386607 0.020278905 -0.11889244 -0.05328518 0.035214745 0.0019232244 -0.1410319 -0.13933241 0.038630642 -0.05220742 0.043210257 0.1049607 -0.08119423 0.035254855 -0.19504245 -0.11353823 0.006112649 -0.085911535 0.11828638 0.09876863 -0.12497159 0.02286285 -0.162357 0.14553282 0.013964215 0.019245926 0.070632614 0.04631263 -0.1437949 -0.13028824 -0.015508193 0.0009797373 -0.11360212 -0.0687869 0.07515904 0.050650954 0.0593735 0.021987362 0.14017524 0.07705539 -0.1593452 -0.002744316 0.1456971 0.08922584 0.11429882 -0.060015783 0.09941151 -0.0060573886 -0.09156672 0.043346465 -0.11869528 -0.012505289 0.019730907 0.035745993 0.05046991 0.084265456 -0.049011897 0.10668362 0.13494973 0.12682824 -0.07719539 0.000414564 -0.006690226 -0.15390877 0.03461354 -0.103535466 -0.09020106 0.12611645 0.15899244 -0.15760078 -0.06198286 0.06487578 0.114419825 -0.09516198 -0.15003899 -0.13047984 0.17747985 0.01773117 0.048796017 0.13490635 0.095583044 0.041698907 -0.07315724 0.12106526 0.10017112 -0.02176598 0.020133592 -0.042945955 -0.00067146536 0.0059784506 -0.08883017 -0.03888018 0.032990955 -0.009977365 -0.10040015 0.10220182 0.10578825 -0.053203 0.082945704 -0.073792405 0.19196592 -0.08518874 0.14475662 -0.08326205 -0.124002285 0.09884349 0.056575075 -0.019220633 0.03211079 -0.0046877065 0.03127256 -0.10879423 0.061390713 -0.05188986 0.069664486 -0.13099524 -0.03545551 0.06574802 0.058444016 -0.0052666604 -0.18998902 -0.112827756 -0.0029160255 0.11180282 -0.16885084 0.09597351 0.14458227 0.054855827 -0.07847618 0.10697891 -0.0980025 0.031664915 -0.07993361 -0.018638153 0.074774206 -0.03560175 -0.09716341 -0.12864703 0.013137084 -0.08930764 0.03548121 -0.10257798 0.15146959 0.11468359 0.068262555 0.001800158 -0.122258216 -0.010249292 0.08201368 -0.033205952 -0.097780064 0.011967511 -0.0073319506 0.04477005 -0.08245651 -0.13696605 -0.056467913 0.12573548 -0.010588245 0.00383085 0.020731391 0.10154129 0.10042699 0.020474587 0.07826295 -0.13047977 0.032499246 0.049674235 0.06255973 -0.100475095 -0.15860085 -0.12810709 0.15832232 -0.17533715 -0.0977739 -0.16433883 0.051504012 -0.001827771 0.16160604 0.032232303 0.07334029 0.06236242 -0.12741272 -0.02581282 0.042234156 0.079344206 -0.09766757 -0.059186757 -0.050706528 -0.113964245 -0.16942061 -0.071207576 0.11947162 0.08297773 -0.064011835 0.13492167 0.10877 0.039749846 0.048987523 0.11288449 -0.09641406 -0.01102884 0.04984664 -0.07942352 -0.13972922 0.019461816 0.11258445 -0.0852954 -0.07115177 -0.10386337 -0.06601687 -0.07073718 0.018791666 -0.036372732 0.123794824 -0.026797881 -0.034252677 -0.07341741 0.12768266 -0.113908544 -0.07394697 0.10670739 0.13683581 -0.10615973 0.07857288 0.0043259854 -0.084243454 -0.04060914 -0.024470309 0.057985954 -0.1029857 -0.1370925 -0.065438144 0.11019585 0.019503627 -0.08607982 0.07379479 -0.10381366 0.08725748 0.029387759 -0.1373242 0.1438518 -0.039533917 -0.1483169 -0.18414249 -0.07237518 -0.023309862 0.13363332 -0.037275247 -0.10129579 -0.11574564 0.07841334 -0.08913405 -0.15286691 0.06317547 -0.014116707 0.02584932 0.109356105 -0.043792836 0.098034404 0.13633062 0.060439326 0.017879007 -0.08744705 0.13629214 -0.12756957 0.010016503 -0.039072815 0.08260573 0.104104646 0.0014298903 -0.074505344 0.08175552 0.14560609 -0.051232174 0.14515048 0.034153808 -0.14086667 0.0035953321 0.046159334 0.13254246 0.07272714 0.039718155 -0.1489313 0.045084402 0.022593109 0.1368717 -0.07125325 0.1396364
submission 0.11023384 -0.15142146 -0.1078752 0.1624745 -0.018811753 0.04089816 -0.06845897 0.053872656 -0.0294477 -0.020218264 -0.055467322 0.18170223 0.003623371 0.03617923 0.023210388 0.015950132 -0.12518117 0.059822988 -0.05401069 0.016981672 0.09812036 -0.008695636 -0.012820923 -0.01230879 -0.09524575 -0.00141008 0.15893434 0.021813303 0.009984553 0.044069286 -0.12025507 0.06088114 -0.011350485 0.06314327 -0.062191125 0.04848288 0.09350624 0.021466926 0.02259999 0.025281096 -0.056790274 -0.055670317 0.01771067 -0.14728025 0.14677341 0.017607419 0.12673685 -0.07159851 0.052530926 -0.1796309 -0.09326277 0.03251406 -0.081722714 0.060960967 -0.084719606 -0.008615138 -0.13108484 -0.09340643 0.10484062 -0.1611667 -0.013306166 0.10150683 -0.03854514 0.16291709 -0.20465866 -0.029568393 0.123495325 -0.1485906 0.098910354 -0.12771145 0.049018662 -0.0075177276 0.04673402 -0.033840347 0.012005457 0.07669547 0.0009237446 0.08281247 0.072731115 0.10839475 -0.05984428 -0.092832245 -2.3615168e-05 0.13087809 -0.0062862514 0.04470567 -0.077115305 -0.111536555 0.0021111912 -0.04508265 0.13473757 0.12804624 -0.04245602 -0.12168859 0.016407898 -0.022007141 -0.058689453 -0.039512787 -0.09880326 -0.064402916 -0.13527663 -0.022833794 0.0663629 0.0032692496 0.09130108 -0.022664402 0.020115549 -0.005579402 0.02872442 -0.08428353 0.013665873 -0.00091474946 0.049993526 -0.08429757 -0.01765325 -0.1645762 -0.06979499 -0.15717776 0.06231336 0.13156234 -0.1759491 -0.103789136 0.0010964088 -0.06947264 0.017381353 -0.079500325 0.07146555 0.045286458 0.036134023 -0.06811049 0.10883139 0.011248451 0.056529053 0.12974751 0.063784756 -0.11057277 0.0108357305 0.01848592 0.14029732 0.16302918 0.016852334 0.09666803 0.04356902 -0.0557326 -0.038932078 -0.017006578 -0.008144769 -0.08919262 -0.1715704 -0.043564245 0.16648296 0.02832676 -0.16370907 0.05774422 -0.008275875 -0.07631155 -0.11839529 -0.026596354 -0.11067988 0.036032617 -0.22229798 -0.088930234 -0.06824942 0.09299114 -0.00613642 0.03909226 0.10595408 -0.111460626 0.04272974 -0.11234204 -0.024059335 0.178411 -0.048985634 0.026542434 -0.023380302 0.07320704 0.026647463 -0.0055311783 -0.10766418 -0.041444883 0.11327726 -0.11098607 -0.0868497 -0.048087873 0.1121067 0.12651493 0.08808193 -0.19826417 0.13544284 -0.07807782 -0.06246361 -0.1642293 -0.11978624 -0.11915994 0.12093305 0.06202246 -0.019784136 0.06709036 0.004903592 -0.0567611 -0.08284143 -0.05464602 0.068780296 0.08874031 -0.030374985 0.018327842 0.04716651 -0.00037422497 -0.04455881 -0.067410104 -0.09625701 0.13176784 0.0056776484 -0.07839165 -0.08634578 -0.079287924 -0.0052641816 -0.05770403 -0.109595396 -0.03777561 0.122921094 -0.023266403 0.09058914 0.024387687 -0.007831875 0.06769782 0.07782043 0.060744643 0.07187369 -0.055212967 0.04882767 -0.08118341 0.061933916 0.003932802 -0.0038598329 -0.012026873 -0.1307236 0.055377584 -0.026946444 0.10320079 0.06317154 -0.1693748 0.08850992 -0.02570582 0.1156484 -0.052417047 0.09379576 0.01670273 -0.12568793 -0.051085442 0.110949755 0.02139178 -0.02398411 0.14997505 -0.038686622 -0.10466354 -0.04069597 -0.025373263 -0.10274641 -0.039848585 -0.09261667 -0.11754376 0.062281672 0.07146653 -0.11986772 0.02689916 0.01762018 -0.08275428 0.013830542 -0.04872638 -0.17381042 0.15516834 0.028181601 0.16608658 0.08090206 -0.1144879 -0.12313451 -0.105580516 0.10721693 -0.007423401 0.17481323 -0.13128656 -0.066486344 0.1963453 0.022332806 -0.00699836 0.029229922 0.015931876 0.1301085 -0.08818914 0.06550201 0.059961878 0.06240725 0.026036507 0.00252307 -0.04085661 -0.00058031303 0.14182015 0.05781737 0.017304698 -0.037855536 0.109448805 -0.13769583 -0.01613199 -0.065433264 0.06382268 0.023717094 0.055102378 -0.17363481 0.0033352433 -0.05306879 -0.0070985714 0.06166131 -0.039210703 -0.0020301105 -0.0835647 0.0835153 0.04217175 0.0970965 0.08202558 -0.0242743 0.150089 -0.021554682 0.09131332 -0.1584397 0.009465263 0.07334516 0.08163286 0.039380275 0.02679605 -0.084460735 0.06577142 -0.0105044665 0.122786 -0.0392102 0.05163055 0.13439302 0.1710729 -0.06501783 0.091833316 0.107565135 -0.05709971 0.14203608 -0.023114167 -0.061224014 0.06730635 -0.07752339 0.09673763 0.038232934 0.10627456 -0.09668182 0.027193068 0.020366756 0.0014837831 0.124954276 0.11481096 -0.124553666 -0.10673722 -0.08783876 0.029966336 0.03920134 -0.07790243 -0.06880765 0.12452812 -0.009830177 -0.047640882 -0.12212371 -0.017879954 0.14790839 -0.13986644 -0.13367398 0.004385122 -0.08582474 -0.07099989 0.026019422 0.068525314 0.07189389 -0.103793584 -0.014249534 0.062441412 -0.09730578 -0.018768862 -0.12904763 -0.04691528
read|the|data -0.18069264 0.038393535 -0.20223187 0.14714575 -0.11790186 -0.11462956 0.04021711 0.0780872 0.1163308 0.062734984 0.14199917 -0.05386531 0.19324028 -0.14901938 0.031673547 0.17553304 -0.0919456 0.11319294 -0.016488954 -0.104278095 -0.11196445 0.123183206 0.057713516 0.014554281 -0.07343853 -0.095529206 0.19320083 -0.15183823 0.15879723 0.03916526 -0.09326663 0.10955052 0.1469049 0.048316542 0.074284054 0.03972735 0.05092436 -0.014217583 -0.03251839 0.049048163 0.11955076 0.1428153 0.0752858 0.13087055 -0.09152448 0.06623383 0.14208011 -0.22276625 -0.0016942029 -0.1157203 0.18678513 -0.1638372 -0.12765777 0.17169105 0.16822399 0.09984736 0.18514244 -0.16689916 -0.1145241 0.13917999 0.16244338 0.15563282 -0.03175883 0.17115258 0.11817321 -0.17280887 -0.014391189 -0.013980771 -0.06821505 0.098918684 -0.2168508 0.098428816 -0.15519416 0.037075873 -0.22754738 -0.20487241 -0.0896373 -0.12846705 -0.12143333 0.17629027 -0.07477741 -0.013909412 -0.19815025 0.03691226 -0.15972048 -0.07476653 -0.0681976 -0.11930019 -0.10470709 -0.052040476 -0.018208096 0.010397345 0.119322315 -0.07989355 -0.15306975 0.013051085 0.08487878 -0.13745539 -0.108623095 0.1842356 -0.08802509 0.062072057 0.12001387 -0.101606 0.03717318 0.13457957 -0.02002341 0.12467755 0.05430258 -0.12731667 0.22477557 0.10751043 -0.14742142 0.05749003 0.15284964 -0.0041548996 0.0054017226 -0.0074461396 -0.02925017 0.09704646 0.17545722 -0.018606197 -0.13345157 0.19904609 0.09847756 -0.022382516 -0.1987987 -0.017728519 0.073135786 0.10667695 -0.0066527454 0.05627075 0.0032732782 0.050156917 -0.009042911 -0.035094377 -0.14315861 0.051706582 -0.13685335 0.14913471 0.006326638 -0.00056752673 0.09466393 0.10407911 0.07249811 0.10927629 -0.14661993 0.01938829 0.15508287 -0.13022368 -0.08278455 0.007724821 0.07659192 0.0324816 -0.030139588 -0.112130664 -0.12464074 -0.1530175 -0.004693204 0.17080092 0.22986871 0.118025 -0.1480678 0.019194026 -0.18144648 -0.14604679 0.14861016 -0.08998421 0.14331253 0.12394244 0.22755374 0.10218312 0.16072418 0.016773872 0.20085937 0.09538876 0.15109721 0.12496118 -0.022827122 -0.06848622 0.03253998 0.05814052 0.12969033 0.114387035 0.075547874 0.042193145 0.011756269 0.07273965 -0.025643216 0.016539482 -0.05509795 0.15855399 0.15323319 0.036941815 0.03521312 -0.025353746 0.13666877 0.003894978 0.037157502 -0.22714427 0.14597595 0.11643125 0.16404322 -0.07464921 0.05669422 -0.08855247 0.19012876 -0.07218262 -0.1398858 0.033717826 -0.14193214 0.078264765 0.09439994 -0.029222272 -0.009622654 -0.02515189 0.14667423 0.05470443 0.16886953 0.037671182 -0.10577826 0.0938377 -0.019394731 0.13762943 0.15955366 0.123554915 -0.21424873 -0.022869632 0.041044038 0.041735988 0.14187668 -0.05479458 0.090731904 0.0053339372 0.095431805 0.10810567 -0.07315013 0.08681124 -0.027853705 -0.012903587 -0.0952723 0.034661934 0.15206105 0.20456184 0.11246026 -0.00610992 -0.01237088 0.03242108 0.124533586 0.0064127212 -0.13030186 0.06919953 -0.13024783 0.17070945 0.1384696 -0.035438664 -0.15138307 0.00022055603 0.1025794 -0.06383132 0.08646596 -0.121597 -0.0496898 -0.062232807 0.04198555 -0.07555792 -0.065390386 -0.03378758 -0.10367852 0.07131962 -0.047781333 0.1463981 0.026376998 -0.062635906 -0.2085121 -0.026558978 0.060985483 0.075641334 -0.026338864 0.123553306 -0.15230207 0.16675834 0.07592568 0.031219274 -0.16545102 -0.024203964 0.027108455 -0.16583359 -0.1692686 0.046083335 -0.16721429 -0.03533399 0.08889285 -0.061033674 -0.07580298 0.09041349 0.04813867 -0.1527356 0.16624866 -0.04237916 -0.022518255 -0.17103285 0.23541096 0.052770313 0.02654059 0.14316392 0.03764811 -0.04506481 -0.19677038 0.027594151 -0.062132765 0.09380661 0.13824795 -0.17243578 -0.026969688 0.24647357 -0.16652957 -0.146425 0.13840593 0.112956695 0.01946824 0.011581029 0.24713157 -0.25408304 0.19931291 0.045198668 -0.1810351 0.15418538 -0.03186401 -0.08526332 -0.14364243 -0.05944449 0.008987787 0.099250585 -0.011048661 0.06820849 0.03598115 0.13145429 -0.19620219 -0.1668001 0.023262223 -0.03250361 -0.0552093 0.013481294 -0.18821669 0.014507847 0.011768284 -0.059437305 0.18640782 -0.011913887 0.062303606 -0.059311688 0.14571954 -0.08465 -0.12734687 -0.11303689 0.04438644 -0.044534534 0.09641459 0.12530689 0.046114646 -0.09522059 0.13355862 -0.03722893 -0.09802579 -0.04471443 -0.13356774 -0.114564866 0.05333322 0.12426738 -0.015419824 -0.11346161 0.03703282 0.010751029 0.083001375 0.17180268 0.019810662 0.04608375 -0.17726256 -0.0777778 0.047256712 0.15607746 0.056030784 -0.075245045
load|data -0.1308805 0.06520907 0.020003157 -0.017258484 -0.03995732 0.055728514 0.15292233 0.13169795 -0.021986281 -0.15320908 0.06720858 -0.105720356 -0.15926592 -0.073898785 -0.042963598 -0.14647223 0.054597855 0.001815662 0.08311361 -0.035954643 0.077259034 -0.011154108 0.048405893 0.113624796 0.07562161 -0.09131844 -0.010770294 0.07388424 0.06603548 0.03082268 0.15266193 -0.16158582 0.046439454 0.06815139 -0.13241574 0.035374846 0.0675309 -0.02226739 0.08280281 0.0192389 0.027421743 -0.030214353 -0.14360717 -0.16249028 0.09201612 0.1444341 -0.10323315 0.1317737 -0.025965255 0.11139097 -0.12111258 0.0040559424 -0.050896958 0.018290984 -0.036535338 0.073627874 -0.024597183 0.023811093 0.12101205 -0.042967197 -0.038177587 -0.12013786 0.091067426 0.17505251 -0.15257657 -0.08793244 0.09306134 0.02406194 -0.045575045 0.027350057 -0.06997447 -0.03327907 -0.05304912 0.027679853 0.13288152 0.009892182 -0.01667542 0.11398104 -0.039420072 -0.1536372 0.014215185 0.12705328 -0.022918964 0.012178064 -0.040069364 0.06727266 -0.054332867 -0.10823292 -0.10011644 -0.035983223 -0.07985625 -0.082017735 -0.08033943 -0.10962238 -0.00042126008 0.041509595 0.026454942 -0.13175133 -0.06814562 0.11160051 0.09073378 0.073240854 0.036625855 -0.06658171 -0.092004634 -0.20561415 -0.050094094 -0.063890815 0.0025190748 0.07175304 -0.040028654 0.061107118 -0.030252004 -0.062635 -0.11611985 0.101177365 -0.07983091 -0.012995832 -0.029103262 -0.076985866 -0.05919409 -0.032973602 -0.030942388 -0.049283233 -0.049429346 -0.10482417 0.09926266 -0.018734938 0.043784168 -0.01192764 -0.14921123 0.024843782 -0.04223884 -0.029032547 -0.04354926 -0.030837968 -0.08097448 -0.0457474 0.14345182 -0.06084937 -0.008522281 -0.07277915 0.03196091 0.13328181 -0.01414671 -0.060209587 0.00035086757 0.07478225 -0.11583397 0.09336431 0.025897097 0.090374805 0.089586005 0.04725396 0.00026680718 -0.06343147 -0.1034333 -0.036048423 -0.15662551 0.06297488 -0.083180755 0.073537014 0.11314803 0.091737516 0.09587944 0.1030031 0.07820774 0.004176741 -0.095370114 0.016868835 0.01634253 0.056369238 -0.11332047 0.07117368 -0.18826252 0.08143383 -0.1074883 -0.09569539 0.14423524 0.054917224 0.059970785 0.043002594 0.106613316 0.05665379 0.12045669 0.0009769758 0.05055341 -0.024255421 0.0373618 -0.11541108 -0.028634625 -0.019327994 0.003920253 -0.10310924 0.042522434 0.065852985 0.011689613 -0.10282364 -0.07896441 0.011765109 0.002874812 0.11654799 0.04849999 0.123234116 -0.1411308 0.030417012 0.11901125 0.18031776 0.044391967 0.0071390225 0.05213657 0.13849308 -0.03846615 -0.02303459 -0.021228489 -0.18637839 -0.11321275 -0.08109907 -0.034658737 0.0624121 0.0049348255 -0.034137566 0.017987423 0.08582164 -0.0042740614 -0.096025616 0.18437332 0.041415103 -0.13545465 0.020786567 0.09469488 0.042734258 -0.026059223 -0.003334688 -0.005490966 0.010469422 -0.05002249 0.0232476 0.08958414 0.015799237 0.09633643 0.027442103 -0.08688102 -0.11664318 -0.14322929 0.12131834 0.16031092 0.13453683 -0.0061100456 0.114123456 0.012155762 0.04270547 0.07249942 0.041240405 -0.089545175 -0.11048808 0.08719799 -0.1085129 -0.010054611 0.12215714 0.13116549 -0.00447976 -0.04964 0.06816366 -0.16326322 -0.07427245 -0.013806703 0.06635052 0.006288769 0.01768917 0.048300307 0.07058527 -0.1369806 0.042903967 0.108971916 -0.008845496 -0.047311176 0.04393644 0.09687561 -0.01624816 -0.04470553 0.029468065 -0.05910365 -0.050742373 -0.07445595 0.12121127 -0.026937703 0.08192374 -0.025046896 -0.13075542 -0.105159625 0.083925836 -0.053950798 0.03331399 -0.05000542 -0.029544005 0.0072260704 0.101392694 -0.09489777 -0.017995184 -0.06190469 0.10390803 0.013706468 -0.054345958 0.08656029 0.04080986 0.024031753 0.07071487 -0.08462079 -0.1340147 -0.08467906 0.11953668 -0.040255 0.14476961 -0.048519906 -0.1908004 -0.10743102 -0.10352575 0.068796344 -0.05066957 -0.002973441 -0.016782606 -0.007308761 0.10297842 -0.01763463 0.03723429 0.04574917 0.03430577 -0.10970458 -0.10736061 -0.104053415 -0.039659362 -0.054922406 -0.0007570626 -0.11420435 -0.037771996 0.070715345 -0.05162837 0.060355544 0.05103464 0.024405427 -0.044595003 0.09911774 0.089038916 -0.024239141 -0.029759869 0.10730157 0.0011519244 -0.09899983 -0.03485373 -0.042330496 -0.07641722 0.09147423 -0.054025356 0.018985147 -0.016609337 0.06657415 0.086582206 0.020765398 0.017916221 -0.18076205 0.0073527377 -0.05862926 -0.055850614 0.11600379 -0.0069828485 0.06434739 -0.038243663 -0.011563674 0.008852118 0.024359811 0.054120023 -0.13580571 -0.069927424 0.0011893554 0.03269413 0.12124891 -0.12292329 0.10664225 -0.07158303 -0.14633286 0.13742748 -0.10670564 -0.0109134205
random|forest -0.049667295 0.13742682 -0.1096384 -0.0045978082 0.10732358 -0.038658988 -0.07162744 0.1728165 -0.10102483 -0.03022867 -0.035647187 0.005428755 -0.16249995 -0.03182476 0.034917235 -0.06416125 -0.1252629 0.0047744387 -0.048984773 0.08807615 0.06754221 -0.13728839 -0.101199344 -0.115901336 0.07366285 0.12599926 0.022033788 -0.037727114 0.13212453 0.085334904 -0.05990964 -0.035112847 -0.11431334 0.0062007764 -0.046534892 -0.022627903 0.08863294 0.066419385 -0.06690585 -0.061066575 -0.103567764 -0.1358683 -0.07817932 -0.104856186 -0.07460128 -0.06981385 -0.0061715515 -0.06305888 -0.08374787 -0.034008037 0.14377439 0.052497927 -0.02480105 -0.01172088 0.06268972 -0.098033614 0.080292016 0.031500667 0.0042001596 0.039054614 -0.0668841 -0.06175063 -0.048464857 -0.043079097 -0.13519078 -0.083098985 -0.0113071855 0.025467116 -0.10315044 -0.1245932 0.0041580666 -0.025144488 0.072667256 0.085816346 0.06821076 -0.13144603 -0.03214377 -0.10424803 0.14090905 -0.061488926 -0.09931419 0.036955643 -0.10840319 -0.1082953 0.1383391 -0.07433433 -0.101152174 0.010138845 0.0244545 0.024867749 -0.012117798 0.11506488 -0.10531257 0.08718941 0.105076656 0.040892787 0.09375279 0.0552126 -0.058371037 -0.09598413 0.095605604 -0.024952047 -0.033183668 -0.06200203 -0.024524398 -0.08964661 0.090845294 0.10619423 -0.060294386 -0.06825575 0.010968659 -0.10348053 -0.031645875 0.15829268 -0.0803399 -0.026421301 -0.074929655 0.11090167 -0.06395961 -0.058698535 -0.13690211 0.05977538 -0.072478496 -0.14758706 0.052935824 -0.035655793 -0.07633023 -0.017088804 1.618643e-05 0.1140058 -0.06476806 -0.037896708 0.08003723 -0.02034867 0.052773044 -0.047513597 -0.11355961 -0.061202608 -0.034167215 0.05362321 0.1360552 -0.020760177 -0.12589364 0.012457795 -0.11681735 -0.09986472 -0.022696119 -0.06392666 0.09965345 -0.14035621 0.14073347 -0.050113816 -0.05127657 0.067234345 -0.0759451 0.016925998 -0.046678185 0.10780748 -0.022221876 -0.09469779 0.020605857 -0.027232755 0.13859344 -0.029716572 -0.084396236 0.12654874 0.10061026 -0.08741408 0.003079563 -0.06768476 -0.0995992 -0.0685166 0.05829276 0.0072273966 -0.15745112 0.13733652 -0.07206437 0.11898247 0.009136922 -0.07503441 0.08378866 -0.05092774 -0.08739929 0.02613547 0.1344589 0.0644873 0.023015214 -0.14165142 0.14672004 -0.081819765 -0.108171105 -0.08329551 -0.16699558 -0.13186581 -0.13416328 -0.04542705 0.002073243 0.039365802 -0.040249635 0.15186387 -0.05369787 0.07193345 -0.04370223 0.10968591 0.07403755 0.10459823 0.03220122 0.16251524 -0.15412998 -0.057743702 0.052874167 0.14030954 -0.14531468 0.13810718 -0.09722913 0.093008004 0.08080554 -0.05428565 0.054670606 0.121883884 0.010719667 -0.010103927 0.08858788 0.05858029 0.008297158 -0.11627449 -0.017765475 0.073417164 -0.069030754 0.040946517 -0.0112844035 -0.036893103 -0.021740815 -0.06586722 -0.13934958 -0.12820506 0.023914069 0.0033033472 0.061931133 0.06785756 0.008723735 -0.13848858 -0.021560756 0.057115067 -0.062053055 -0.1434194 0.017042063 0.062519625 -0.09041078 0.018455306 0.1381856 -0.048465583 0.0150675615 0.0021439062 -0.103426404 -0.047984876 -0.040913828 -0.011187751 0.12997083 0.0452883 0.08930647 0.123869434 -0.11947004 0.057039674 0.09675515 -0.079768844 -0.06469214 -0.09540231 -0.10813386 0.06980219 0.08678832 -0.057629272 0.1809128 0.17274879 -0.033904694 0.11177187 0.0017270547 -0.0347351 0.13815698 -0.09954954 0.08213808 -0.10185663 -0.02059265 0.017575452 0.0631672 0.121530846 -0.051486608 -0.09187229 -0.0062371218 0.15836257 -0.035298172 -0.066101305 0.07161309 -0.105906025 -0.0057296404 -0.050773177 0.13812512 -0.04650407 0.083727635 -0.018618139 -0.017006608 -0.07556438 0.07343591 -0.087010965 0.10571 -0.104469575 -0.120912656 -0.017938713 -0.038866505 -0.18653508 0.082590334 -0.069210604 0.11545634 0.07733022 0.08543163 -0.06660403 -0.06272634 -0.09166821 -0.07526565 0.17404039 -0.115707934 0.08580097 -0.12715562 0.11978423 -0.02955915 0.095776565 0.02394905 -0.043054394 -0.040401198 -0.014211042 0.024731504 0.07486308 -0.022867147 0.08843447 -0.00082460593 0.12337274 0.027942225 -0.048216607 0.046686675 -0.06147601 -0.058956802 0.0027912161 0.12856111 0.059408493 -0.01507576 -0.05241985 -0.1277786 -0.046948954 -0.1325298 0.02656765 0.003874893 -0.042244922 -0.013845208 0.16207615 -0.010734571 -0.05726967 -0.088962145 -0.0814115 0.07575821 0.15006734 -0.044213586 -0.08929442 -0.053604096 -0.078707576 0.09512905 0.014439651 -0.018270055 0.06253868 -0.050563686 -0.09265209 0.12612313 0.038031444 -0.10296768 -0.023422346 0.11084223 -0.012396163 -0.09085026 -0.0966795 -0.068940096 0.07323135 0.053214923 -0.08275765 -0.12196687 0.067166135
training 0.032546848 0.110254936 -0.10930694 -0.07487907 -0.052349083 -0.06781838 0.054746177 0.053514503 -0.1095815 -0.052549787 0.020433689 -0.08661265 -0.014273211 0.011302978 -0.062364165 -0.00504909 -0.01157938 -0.05310456 0.11008193 0.17864098 0.14869477 -0.12253876 0.007819408 0.07696321 -0.06640938 0.10599194 -0.04258764 -0.048214592 0.026396483 -0.040302005 0.070807055 -0.038435996 0.07539352 0.08423237 -0.10006411 0.08481466 0.0027063992 -0.00926026 0.12721357 0.0110532455 0.006856221 -0.09484105 0.030133331 0.047911644 -0.013843091 -0.06441479 -0.0061792964 0.10431448 -0.029151864 -0.031930026 0.040607695 0.047763288 -0.09582496 0.021142334 0.007517215 -0.1494875 -0.09633122 -0.0963189 0.08212176 0.04495169 0.011289166 0.087291956 0.103622414 0.013940197 0.04344329 -0.09657416 0.081054404 0.034868523 0.042970195 -0.06428765 0.008031479 0.084176436 -0.05642128 0.06775431 0.1620658 0.08257932 -0.010976125 -0.12414362 0.057728946 0.019431429 -0.01099563 0.015216639 0.0043386933 0.021043269 0.08478489 -0.035602458 -0.099896975 -0.029311527 -0.17764491 0.010596682 -0.0087485025 0.115069084 0.087369606 0.08246697 0.007432582 -0.027490614 0.07700502 -0.06105099 0.008896608 0.09684288 0.020865543 -0.11425299 -0.15250702 -0.03158097 0.13338143 0.064239755 -0.11743067 0.072175846 0.14788896 -0.1047257 0.09233782 -0.08259022 0.018224616 0.16385858 0.062199954 0.002491959 -0.14111178 -0.1262915 0.08446439 -0.024166847 -0.1181715 -0.14243785 0.07144717 -0.109438226 -0.10024493 -0.04144092 0.0051215487 -0.0004918421 -0.11136961 -0.06847032 -0.09323348 -0.12417273 0.079120286 -0.039992858 -0.011974917 -0.14734212 -0.019181328 -0.0073569356 0.03309614 0.070223 -0.06989391 0.06533969 -0.043740027 -0.07644676 -0.02961524 -0.12664011 -0.026987502 0.09898469 -0.077881105 -0.09656945 -0.014058147 0.044040184 -0.08664956 -0.009627712 -0.022826351 0.009446374 0.0017616127 -0.046117365 -0.008797456 0.055262752 0.05290185 -0.02190421 0.07122352 -0.043056633 0.10203345 0.054487288 0.12526946 0.07825708 -0.017212622 0.075736865 -0.058220048 0.12482012 -0.068004355 -0.11320587 -0.0929984 0.037540052 0.06370678 0.10177909 0.001119913 -0.02154114 -0.084530875 0.003718783 0.031690758 0.021984782 -0.017720615 0.019445557 0.02594229 -0.090188034 0.16605403 -0.048991058 -0.12583262 -0.119283386 -0.09256889 -0.173335 0.03886809 0.13731644 0.03687473 0.14869288 0.021225996 -0.035341427 -0.015528081 -0.06480552 0.04892533 -0.034932047 0.10419626 -0.011806497 -0.15915026 0.12957093 -0.07092978 -0.081195064 0.016026445 0.13033359 -0.009949168 0.049624123 -0.08654513 0.0043787146 0.14343154 -0.091637045 0.06454663 0.06334869 0.10825699 -0.038131416 -0.031174118 -0.09298881 0.008373565 0.052428517 0.09305357 -0.005344537 0.10325915 0.083278395 -0.021748824 0.026006589 0.07275827 0.04375767 -0.04653311 -0.013072454 -0.047874387 -0.044439364 0.03801528 0.042530447 -0.032266516 -0.029429715 0.10019208 0.019715667 -0.08208951 0.042830903 0.12651058 0.041065104 0.027634572 -0.030157162 -0.050135348 -0.055872235 0.08944326 0.073442854 -0.08661154 0.04617879 0.04829191 0.04474815 0.036360875 -0.03419357 -0.096181504 0.0010036217 -0.12339227 0.083269395 -0.067291446 -0.09204269 -0.012518189 0.04338223 0.06623146 -0.123475924 0.0013652922 0.1654518 -0.019622015 0.013995603 -0.076880924 0.015663536 -0.094644904 0.048579406 0.011437125 0.02189197 0.043424897 -0.13138776 0.12208088 0.07431772 0.057704594 0.06838797 -0.007022172 -0.09078373 0.01726479 -0.106093846 -0.07390046 -0.15076953 0.037206095 0.016869139 0.07835523 -0.07957184 0.104538634 0.15999995 -0.14715083 -0.01735515 0.07725779 -0.07665241 0.115469635 -0.05002776 -0.095608994 -0.05904128 0.018000837 -0.079165876 0.010703883 -0.19319272 0.06255248 -0.13833623 0.14008956 -0.089866854 0.0074068164 -0.11606541 -0.09504967 0.035997793 0.032630447 -0.03601072 -0.054356206 0.08612046 0.025865963 0.031499904 -0.15712278 0.015613326 0.08341818 0.08667147 -0.052400198 -0.04705683 -0.0057060663 0.0018624141 0.042389136 -0.050868362 -0.13623898 0.13279313 0.052158825 -0.09090029 0.023788976 -0.032332547 -0.0771163 0.031216715 0.1269572 0.117263116 -0.026924955 -0.07347547 -0.026266545 0.12908278 -0.008425403 0.043979086 0.048813768 -0.06472995 -0.13876557 0.057547323 -0.09639793 -0.020008553 0.08751664 -0.06652307 0.025485102 0.10886112 -0.06624809 -0.06548461 0.016223522 0.057556663 0.07902201 -0.051237635 -0.031579234 -0.055901445 0.03823142 0.057757013 0.07505716 -0.026259106 -0.064889774 0.06307968 0.13415901 0.04738133 0.12924956 -0.016383199 -0.012675529 -0.10600538 -0.1518583 0.18276618 -0.0072723636 0.074100845
check|your|answers 0.11720589 0.10665626 0.021158567 0.051956076 0.10845334 0.1424385 0.03642957 0.052790385 -0.012463653 0.080496326 -0.08062985 0.15434568 0.13988523 0.16294512 -0.012053025 0.19711088 0.03482371 0.17706645 0.010450304 0.09571331 -0.011394476 0.05463594 0.15980119 -0.02624013 -0.068876736 0.16711402 -0.08941304 -0.0035352185 0.040118717 0.13502254 -0.08435691 -0.0015430114 0.05800079 0.011390662 0.020876981 -0.17271738 -0.06483596 -0.08960793 0.14028336 0.080417894 -0.17046563 -0.17496906 -0.007984697 0.026933536 0.056610953 -0.111091204 -0.014607626 -0.16731286 -0.08936491 -0.06643617 -0.0105639985 -0.16494817 -0.10509297 0.01324417 -0.0131916385 -0.04851521 -0.11787941 -0.092505924 0.05442656 0.128513 0.07651053 0.15961322 -0.016225796 -0.087507576 -0.054111272 0.010132793 0.048065893 0.048095133 0.12053226 -0.018806396 0.040201064 0.053847708 0.027839841 -0.019896993 0.06412285 -0.021207733 0.10966301 0.07662613 -0.0010240052 -0.0679326 0.11239291 -0.10506078 -0.01125032 -0.042989083 0.1486352 -0.080141544 -0.086295374 -0.1058206 -0.12332207 -0.070579305 -0.108850636 -0.029739598 -0.011219987 0.18077666 -0.18695284 0.1671389 0.19650319 -0.070892476 0.055965755 0.08141498 -0.18930605 -0.14970529 -0.031758595 0.11767225 0.1325897 0.1755808 -0.16411075 0.012709509 0.065088935 -0.06173883 0.05745365 0.0068745995 -0.036013152 -0.12867069 6.287451e-05 -0.061761107 -0.13557947 0.11256361 -0.12302932 0.019750858 -0.014800858 -0.17202345 0.04323888 0.026898142 0.051728204 0.010663838 -0.024468519 -0.02304228 0.0048536416 -0.077677764 0.09028009 -0.16486412 -0.067785345 0.05699317 -0.013751642 -0.0052027325 -0.17396322 0.14728084 -0.20981996 0.014292193 0.13525629 -0.028289538 0.06921221 -0.018332485 0.0015502509 -0.12659678 0.11016026 -0.0651026 -0.022577018 0.003894926 -0.10254612 -0.14892231 -0.15330437 -0.17566328 0.08348896 0.030928308 0.122395076 -0.20428517 0.21886839 0.12150709 0.029576065 0.20456022 0.1372499 0.08255285 -0.11302618 -0.07300567 0.04044063 -0.054934744 0.14844318 -0.17341886 0.010533913 0.10170437 0.08159088 0.14878738 -0.18465412 0.034144167 -0.10043508 0.026589625 -0.14542592 -0.21717075 0.059421197 -0.051557183 0.022301298 0.00639241 -0.1849184 -0.0853713 0.005105595 0.067787044 0.090982735 0.07236953 0.009943846 -0.1802446 0.17437987 0.08379568 -0.06659187 0.1030062 -0.17100495 0.15675528 0.041826367 -0.16526417 -0.016644139 0.015889088 -0.023167567 0.06521675 0.1564409 -0.07845449 -0.07018628 -0.24906851 -0.12734249 0.077564634 -0.033061314 -0.073190615 0.01765557 -0.04086557 -0.11255942 0.0020448256 -0.05104206 -0.09880704 0.15702754 -0.007310141 -0.089657374 0.08660197 -0.03646176 -0.09621163 0.0013060601 -0.011970551 -0.16798306 0.03087421 0.03359098 -0.031129105 -0.06411632 -0.026258588 -0.046289265 0.16517204 -0.0029769004 -0.07769389 -0.008404539 0.0811475 0.116263784 -0.030136088 -0.103948876 -0.06859534 0.11739538 0.11169429 0.012184267 0.001982545 -0.055235248 -0.12562929 0.12345842 -0.059905466 0.08402308 0.031903878 -0.14784868 -0.066596895 0.10769264 0.10904958 -0.062800616 -0.03865515 -0.045236368 -0.2099157 -0.011801278 0.048083056 0.0015101071 -0.010148151 -0.08829073 -0.066169694 -0.14435571 -0.11495159 -0.021335188 -0.06877398 0.05463024 0.03305814 0.0075827204 0.0016062979 -0.03218095 0.07827567 0.02504767 -0.05441593 -0.13601892 0.017398607 0.018282248 -0.09556671 0.09964984 -0.040641814 0.089739434 -0.0023504286 -0.03165641 -0.08822623 0.1302895 0.073346354 -0.0072745946 0.02907678 -0.15473911 -0.19148698 0.046808183 -0.15461898 -0.1917704 -0.15007679 -0.014899715 -0.07808918 -0.037959468 -0.10732946 -0.068090335 -0.12552167 0.1063882 -0.104019545 0.00061019865 -0.19320045 0.061702363 0.08593331 -0.020857079 -0.16565818 0.067543894 -0.105643034 0.062924266 0.15554711 -0.11562555 0.0012661249 0.12472127 -0.23075843 -0.0736981 -0.056187592 0.20477434 -0.08542791 -0.05237771 0.09980438 -0.17110726 0.06327095 0.012066499 -0.119481914 0.016898371 0.027026296 0.1503868 -0.08920662 0.07242187 0.086323254 -0.021916045 0.03421777 0.04676601 -0.10829447 -0.022838721 0.008317519 -0.038488567 -0.011603876 0.080280215 0.054219186 0.06860474 -0.18073164 -0.1256337 -0.023155544 0.077061325 0.12589766 0.12690511 0.11874486 -0.04722018 0.08710016 0.05207128 -0.039217148 -0.008638403 0.015881699 0.09263318 -0.1220705 0.11084729 -0.18310395 0.07896373 -0.0006161125 -0.07673152 -0.09200453 -0.0766398 0.19771722 -0.1636572 -0.16800463 -0.01061148 -0.09532371 0.1327041 -0.021847727 -0.13467912 0.082559586 -0.07133861 -0.085808225 0.023806624 -0.040708646 -0.091335386 0.034170482
prediction -0.03797274 -0.01376833 0.0053970558 -0.015124305 -0.0912547 -0.027698686 -0.05237098 0.10723652 -0.0011354923 -0.04266831 0.03577445 0.07708775 -0.15564692 0.09390412 -0.07077436 -0.113142066 0.074520156 0.025813628 -0.0119199855 -0.03358376 0.045227867 -0.032885745 -0.008721427 -0.06074861 0.08233028 0.12436958 -0.05240191 -0.08096938 -0.02027358 0.043419696 -0.054635018 0.036067247 -0.09486491 0.039121713 0.09792088 0.10702296 0.08810678 0.08516883 -0.07788581 -0.037524953 0.026099347 -0.14876452 -0.08177177 0.065665096 -0.02651292 -0.003544023 0.11790941 0.091032125 0.06323104 -0.085954875 -0.0065119765 -0.005073026 0.09143217 0.107593864 0.09882514 -0.020815413 -0.10072601 -0.0005640775 -0.07235211 -0.08671367 0.032745752 -0.072647825 -0.0042738584 0.017357254 -0.0301036 -0.10004642 0.090219066 -0.027362198 0.017911255 -0.026358886 0.098945 -0.046104833 -0.030163685 -0.038299836 -0.08114745 0.06742304 0.11371467 -0.09465552 0.11778251 -0.12304288 -0.091704704 0.055279464 -0.0355416 0.026057431 0.03242187 0.035926733 -0.013900502 0.025543861 -0.101415336 0.09463126 0.0388685 -0.093477875 0.1047982 0.012202403 -0.07026382 -0.018306129 0.1222489 -0.0019381891 -0.049737602 0.049731486 0.07405354 -0.02573273 -0.10353004 0.014511573 -0.08786919 -0.008419371 0.061439145 0.063019715 -0.042154677 0.05209291 0.015871253 -0.07049691 0.06594063 0.05460978 -0.06972107 -0.07378689 0.0719549 0.03561366 0.12224172 0.09339842 0.072647326 0.03497611 0.052449998 0.016098516 0.00028457504 -0.040495973 0.104231566 0.004377044 -0.103484794 0.09279272 0.04528074 -0.11110515 0.02559954 -0.07523972 0.08838764 -0.03288457 0.0168869 -0.059722997 0.017861016 -0.04354449 0.039596967 0.038973868 0.11188653 -0.10977157 -0.049900275 -0.05925406 -0.035597183 -0.012052665 -0.057021815 0.040174276 0.0050268886 -0.051597737 -0.11591527 0.077168554 0.01801877 -0.07401194 0.04506534 0.113828324 -0.16594586 0.08336247 0.020086315 0.0010828162 0.078394756 0.11782129 -0.05517939 -0.008567349 -0.08058012 0.033075355 0.117466606 0.073389925 0.056200188 0.07717402 0.07894555 -0.10798961 0.071367085 0.049482748 -0.05866377 -0.050536674 0.033511516 0.007184533 0.020201309 -0.15700461 -0.092852324 -0.12065296 0.020934997 -0.07405551 -0.10431241 -0.09210893 -0.026538763 -0.116729416 -0.11232229 -0.0955314 -0.05163501 -0.00031138153 -0.015475001 0.11161226 -0.03460949 0.03175688 0.086658195 -0.030608669 0.077030115 0.01082034 -0.00011397207 0.0048378254 0.08240931 0.08783748 -0.05118685 0.06801794 -0.046611466 0.09191985 -0.020332312 -0.057815567 0.05751759 0.1379035 -0.12962265 -0.1488459 0.13990319 -0.09693597 -0.10526159 -0.047030047 0.10940315 -0.10087498 -0.028440079 -0.059181426 -0.075635925 0.058471616 -0.06536753 0.04171907 -0.10597211 -0.035004333 0.008551799 -0.07649973 0.029281972 -0.04029151 -0.0809495 0.088736996 -0.0040087807 0.050979946 -0.066171385 0.0708626 0.026994566 -0.054074127 0.15449455 -0.03285038 -0.029121373 -0.092500746 0.1557095 0.011915565 -0.07845712 0.07452035 -0.017948767 -0.13428825 -0.06977475 0.0035036 0.041846205 -0.08017009 0.01695623 -0.057092264 0.10748717 0.11255407 0.059901543 -0.10338634 0.09517934 0.11126699 0.029350856 -0.014921998 0.059767593 0.08698164 -0.07275008 -0.04435479 0.0707881 -0.09044038 -0.11410304 -0.039933812 0.03492287 0.035759944 -0.13731278 -0.070346825 0.06234073 -0.12621774 0.10732147 -0.031798862 0.0837126 0.106288634 -0.12102641 0.06966836 0.08325753 -0.09902769 -0.040586658 -0.061787415 -0.040924896 -0.07469247 0.09590244 0.020107677 -0.04633376 0.047298115 -0.085312665 0.01348461 0.030597022 0.04940126 0.06870492 0.10318502 0.0726819 -0.06650675 -0.010602515 0.030468358 -0.052440688 0.091207415 -0.023174988 -0.08586687 -0.017254004 -0.0077621127 0.072908744 -0.01544559 0.06444688 -0.0025868812 -0.041428097 0.00500497 0.105264604 -0.10021744 -0.075866364 0.06897984 0.03714731 0.075413026 -0.03392415 0.06432013 0.010974608 0.019408163 0.011318881 -0.1329679 -0.03145412 -0.016976405 -0.048319973 -0.031098954 0.073154025 0.019966044 0.023523532 -0.020848438 0.004297177 -0.074002326 -0.06074367 0.090882085 -0.0112125 0.124885656 -0.036855046 -0.05071469 0.035569143 -0.083888896 0.017981447 -0.0913984 -0.018300334 -0.07198495 -0.07166968 0.009170181 -0.030737339 -0.0011987523 -0.039090388 0.021192392 -0.14133917 0.14318301 -0.01764963 0.041797 0.094197676 0.013998768 0.12821777 -0.10905146 -0.049147557 0.003029129 -0.028830666 -0.09702444 0.01899129 0.008181258 -0.09065889 0.08720323 0.08506545 -0.05103489 0.13451101 0.014056854 0.0809063 0.011337729 -0.1055046 0.08329808 0.03659262 -0.018340506
eda 0.035520338 0.033102594 -0.010431418 -0.07183191 0.008425818 0.037503686 0.06175148 -0.064719476 -0.1227714 0.08237 -0.0047791903 -0.0037950957 -0.14840236 0.10912218 -0.13532473 -0.16177969 -0.007996641 0.00070427783 0.027850777 -0.030302707 0.06484843 -0.08595935 0.09961763 0.047729183 0.053895757 -0.08886699 -0.0078749275 0.05609552 -0.114254504 -0.024605965 -0.075430594 -0.0513958 -0.037504975 0.10455236 0.08472699 0.047062356 -0.0509848 0.12210228 -0.04970893 0.0020779064 0.07005847 0.07224233 -0.030360773 0.00095120596 0.029529074 0.06505157 -0.07495822 -0.025860053 -0.07890939 0.015910594 0.009538167 0.050443128 -0.075262316 -0.010281547 -0.122871555 0.08948153 -0.008975675 0.11219527 -0.04067289 -0.092880905 -0.12502912 0.10731298 0.07634477 -0.05477489 -0.110085 -0.04039582 0.08979592 -0.1595831 0.05369793 -0.1401519 0.019178087 0.06966604 0.063503176 -0.049012106 0.12877671 0.008416862 0.09636472 -0.047959473 0.09301351 0.05579659 0.07567972 -0.13793951 0.13121642 -0.06615292 0.036477596 0.0391209 -0.020700337 0.0010269533 -0.046202846 0.10661121 -0.0913269 -0.002292188 -0.14840844 0.037982307 -0.0052080494 -0.0013121585 0.114823096 -0.09873879 0.043097835 0.097215086 0.09237505 -0.06504725 -0.026119947 0.12880054 -0.004183936 -0.14177471 -0.097711526 0.059191763 -0.02877542 -0.0034577146 -0.022291156 0.06851225 0.06855674 0.06473031 -0.0034136383 -0.101556174 -0.0468643 -0.05664831 0.109800845 0.08399515 -0.15954806 -0.034137048 -0.022652809 0.023693247 -0.116477095 0.020769475 0.124800324 0.026951918 0.038544178 0.01647881 0.11924556 -0.091356725 -0.032375786 -0.034454994 0.006140637 -0.12319336 0.067453355 -0.02581158 0.018814346 0.025205787 -0.048980206 0.031755213 -0.03513705 -0.11373214 0.010140706 0.14066613 -0.030587412 0.04855552 -0.05318977 0.06777798 -0.10062742 -0.059503883 0.015622829 0.034436557 0.088776655 0.078292586 -0.13255227 0.15885483 0.034749664 0.104366586 0.014537392 0.100294255 -0.07439547 -0.026186429 0.089015506 -0.09081155 0.018160295 -0.05239734 0.09601159 -0.10109308 -0.09359381 0.13409387 0.05671237 0.0805159 -0.08205289 -0.005689518 0.09054054 -0.046225693 -0.027117873 0.09669992 0.12544808 -0.13779977 -0.087184615 0.04721038 -0.0839578 0.03939278 -0.017696584 0.048575778 0.052108534 0.026458384 -0.11082605 0.019296775 0.03404864 0.07094841 -0.040669743 0.070941426 0.06200324 0.013937865 0.035390228 0.041650444 -0.011076327 0.09693849 -0.031754795 0.11620165 0.020246252 -0.05378358 -0.08845142 -0.058156952 -0.04369573 0.06943554 -0.09328258 0.031029586 0.07659397 0.10661256 0.047656 -0.1396069 -0.025827438 0.012869887 -0.021486392 -0.0053759664 -0.032712772 0.017601078 0.09521698 0.0045369766 -0.0839131 -0.10525707 -0.018840332 -0.05452661 0.124206044 -0.046377707 0.026935685 -0.059094086 -0.14569572 0.04134634 -0.04864561 -0.097183995 0.097176105 0.07763284 0.0989273 -0.034440864 0.043275945 -0.0670308 0.12102309 -0.0044721784 0.062804855 0.0428784 0.07375187 0.10118446 0.0020558126 0.044905238 0.12042648 0.00021718907 0.105072 0.019855816 0.052121762 -0.111205906 0.03549007 0.03605643 -0.03166268 -0.0136647215 0.08697709 0.019577585 0.099351324 -0.0028610656 0.018522572 0.14557573 -0.07571118 0.10776069 -0.08646193 -0.1130208 0.02239039 0.004190424 -0.07301224 0.15012969 0.02105568 -0.04611038 -0.09556974 -0.061190575 0.10147941 -0.033738647 0.12008882 -0.13444921 0.11947164 0.09563872 0.1116955 0.06457724 0.095338985 0.06107692 -0.07277986 0.07861504 -0.032879293 -0.0935138 -0.07305088 0.007805091 0.041884795 -0.028121801 -0.038825914 0.0191068 -0.07939452 -0.046085052 0.004473585 0.06277949 -0.11585712 -0.1282916 0.03454268 -0.04649382 0.12663335 -0.070469774 -0.027749108 -0.05794757 0.046393752 0.025248207 -0.043278173 0.076525375 -0.031104917 -0.105139114 0.15062074 -0.028010247 0.017906306 -0.015261605 0.048455507 0.029368121 0.008469541 -0.052526943 -0.07563333 -0.13987708 0.057009343 -0.009371257 0.04521953 -0.13519932 0.015413357 0.03934611 0.01675611 0.06769564 0.0063671013 -0.07860587 -0.091348305 0.130158 0.15953863 0.1103737 -0.030495496 0.004615199 0.083940916 0.076095514 -0.0060640546 0.0529594 -0.0061089587 0.012982767 -0.013514253 -0.09744289 0.025443744 0.08873548 -0.018948052 -0.10131426 0.12518865 0.14435019 0.03354907 -0.119306326 -0.13125858 0.05011312 -0.14020045 -0.08573956 0.0036268898 0.033646703 0.041636705 -0.120222665 0.063311346 0.08942953 -0.1123636 -0.09102821 0.042627748 0.06508929 0.06541702 -0.012483049 0.11285587 0.091004334 0.15437062 0.060199045 0.047890685 -0.0074920207 -0.064281136 -0.030420655 0.024219412 0.04746363
